{"filters": [[[-0.4565743062229107, 0.2558329278709221, 0.013357441850185475], [0.3880326855374232, 0.895521211103837, 0.48710404123526513], [-0.030560430304729047, 0.30598497610113884, -0.6425239972791262]], [[-0.5764072357505468, -0.18687048685750238, 0.4476505326252732], [-0.5346441876790126, 0.13856084764803206, 0.6040931155573135], [-0.3888370928620312, 0.5556981394789718, 0.5851439792785872]], [[0.24952736917965793, 0.24940145277886605, -0.5230010289425684], [0.010319966941843608, 0.473297180955009, -0.5013077466900424], [0.1185815067848996, 0.3691166303726256, -0.12247442597783592]], [[0.04238972668735639, -0.09720242670315132, -0.05858117232287713], [0.5659563317861975, 0.007461323988794976, -0.7407136094182651], [0.9912919202293289, 0.4984499152249567, -0.5204606047080618]], [[-0.5197527362967391, -0.6078380227318743, -0.6844073955712437], [0.13884900557340882, -0.3750293807345622, -0.23266192228139862], [0.9539209607118805, 0.8817539858598303, 0.6955068785542163]], [[-0.34963603011832295, -0.09592715660223876, 0.42006253480588357], [-0.4794179748990309, -0.04454767833730477, 0.557873151229121], [-0.2835235783838665, 0.1979956297571917, 0.3277598162309382]], [[-0.215864382549879, -0.5914561784617421, -0.6383648071133313], [0.5658298948856865, 0.40257690138556795, 0.19301742364213237], [0.10365680575930139, 0.3777631361660244, 0.39585218013658463]], [[-0.4508954791570754, -0.0788336893651371, -0.09981919603871402], [0.12036999157531016, 0.1739684355909148, 0.24733900991154034], [0.11198546855875444, 0.309670571371059, 0.1011591096408131]]], "biases": [0.01950308901587973, -0.0041459727676411715, 0.05232194963685608, -0.009432558461566935, -0.01492649252332566, 0.0682362294026021, 0.00956976802697269, 0.02985016113074216, -0.09371107195475838, -0.057265101505761064], "weights": [[-0.01096745552263476, 0.03513597022434771, -0.05464282276051777, -0.013233923087257751, 0.026427497673632602, -0.028276382916610544, 0.0003272955630456741, -0.0049035686385606935, 0.014772213401073825, 0.032779809345584235], [-0.005697331616992475, 0.011190673034528274, -0.020731597513585047, -0.0022946920594249173, 0.006433639170341749, -0.006747760404240926, -0.002751668142003962, -0.0017949829132418425, 0.005642083172124684, 0.016091185929650042], [-0.004245036517788756, 0.007114716464430452, -0.00877326917865553, 0.0008979415477709004, 0.0024776622239540223, -0.0025499996044569214, -0.0005191883384897068, -0.00046932651802673116, 0.003289150595054655, 0.0072487587210617235], [-0.007397794804167087, 0.013780702422410487, -0.023195102214699462, -0.0014281791018553513, 0.008552191168675073, -0.006046352301414074, -0.003984010077070148, -0.0007359478694417951, 0.007286414648148379, 0.016773438913990024], [0.0033102135097935873, 0.006137557140398097, -0.0165740405756419, -0.005685892228641352, 0.01474177093335516, -0.01797198332700221, -0.001435395508986939, 0.0025452582686932164, 0.009040933615588666, 0.0071396543160561895], [-0.0025510118490957383, -0.0022651282810952577, -0.00024761557067193643, 0.003382132424248926, -0.004627843565828719, 0.006200283088563741, -0.001234893812808354, 0.0005383652913778267, -0.0002682274361195137, 0.0013708411237776615], [-0.00030307353368491874, 0.010141476625927263, -0.02436497076029655, -0.006363882785951193, 0.017281667212465546, -0.018614472919905808, -0.0013636690308005974, -0.0008308511846260291, 0.010255717174214547, 0.014014447943272126], [-0.001751891821537542, 0.008526925847432091, -0.01906659195016331, -0.0023921916777811343, 0.010015845280180609, -0.011507111682990387, 5.6384830370894475e-05, -0.002547292085401655, 0.0067006692269823715, 0.010154353672173285], [-0.010675326391256689, 0.032485281156869245, -0.05089209659044487, -0.015019149578925925, 0.026951202692304985, -0.026913095293740315, -0.0032953956932132555, -0.00454444508770319, 0.01532255539120638, 0.0345057143784328], [-0.0051975864315613384, 0.01162946163013864, -0.019102853400269973, -0.003784233582004597, 0.006549451798912455, -0.004717018743843731, -0.003571659696377797, -0.003407178885956783, 0.004828892006284949, 0.01523360343821495], [-0.003700745297520938, 0.005434004860705094, -0.008903217442283408, 0.001478323942138265, 0.002565473322222828, -0.002692093541870897, -0.00027571945612755083, -0.0014393694473724245, 0.0025534330591500155, 0.006433528693551044], [-0.007140546572216894, 0.012090740450813695, -0.022751899297565797, -0.0036220442995441456, 0.008876136037208904, -0.007566902930941352, -0.0046723060292167985, -0.0011065852232386363, 0.00625581743387824, 0.016369059541762696], [0.003165295371169811, 0.004209148414750075, -0.015266989101225835, -0.008560914138205509, 0.013349468692024915, -0.015412502772076309, -0.0011709998549018707, 0.0013548823264261853, 0.01000000918825294, 0.0057770981060872], [-0.001200807497027904, -0.002013643408382447, -0.0002025440090221218, 0.0030017341180647397, -0.00499211188592424, 0.005636085148672378, -0.003092742297853207, -0.0008654221607862797, -0.0010472660967713004, 0.0018045423226081794], [-0.0008298453243933306, 0.010961540326990945, -0.02355447566928592, -0.008119699593666659, 0.017115849653066707, -0.018169690631765965, -0.0013616137592165748, -0.0024144109621128894, 0.01141284674771893, 0.013624328179691371], [-0.0021746679799878074, 0.008753269901810516, -0.01856029966485602, -0.003168599762173504, 0.009291115001108864, -0.01144972341429094, -0.0015784908592474355, -0.0019473340410222338, 0.006662578594621183, 0.0118639470610669], [-0.012365702625786717, 0.032065293004644606, -0.033051883939332186, -0.016831792189226945, 0.02471439918875168, -0.0262514529366015, -0.01402691461530351, -0.006768773684301644, 0.015189012330350906, 0.03386520247676852], [-0.007521362433618371, 0.007678876464576595, -0.007478078256034799, -0.006923644356840118, 0.005783155247392986, -0.003274439062578046, -0.0036944978806472285, -0.005414767162562924, 0.006732787375721252, 0.014155735400943966], [-0.004139627959780292, 0.004343205467114247, -0.003861098051740012, -0.001544268408665137, 0.0010230047632704782, -0.0010288776674041435, -0.00529063799397946, -0.0004939192520098786, 0.0014929428703103252, 0.006956052600007097], [-0.006586267179906387, 0.009764828646598136, -0.018103802969537744, -0.005759615853145025, 0.008757034880990605, -0.004207149890692997, -0.006382241764206887, -0.0013081691827809537, 0.006044029598249008, 0.015712807349608324], [0.0032495720365270536, 0.0022723507526524276, -0.009857497879829475, -0.012585494621436516, 0.014019922909311585, -0.009501247920401896, -0.0013212403432252536, -6.990979071144139e-05, 0.010114315375599833, 0.006756948077821891], [-0.001688028792546374, -0.0024243007930421956, 0.005947895932082925, 0.002244221211446274, -0.005017725576232421, 0.007649723902870425, -0.002454880850174226, -0.0026522947584270555, -0.00018139033166706092, 0.0009382030406370511], [-4.6635187320686465e-05, 0.009076827288029303, -0.013542022202229264, -0.010949536729702964, 0.016128657970907047, -0.014024447934682764, -0.00467462051453884, -0.0014328559996622753, 0.00830902630257163, 0.012642728176655389], [-0.0015016520809043087, 0.006935778396780953, -0.009774875146711097, -0.006628131585374389, 0.010801478245156568, -0.009248528194226243, -0.005141881959213969, -0.002259526172787498, 0.007321360264765467, 0.009922780699715233], [-0.014079542364946575, 0.02945117060713448, -0.04065957424260795, -0.017719254210336294, 0.001883575450205107, -0.026325008470844687, 0.028788753754852698, -0.009580089228334318, 0.014504934292410085, 0.033988302410154596], [-0.015845190288072044, 0.003069953130213178, -0.013643233244962045, 0.015061990687520345, -0.024842945139703178, -0.00578129481571347, 0.03214227874245362, -0.009118934639151244, 0.004846920570442679, 0.01467283407017318], [-0.006162060252580254, 0.004051868712616746, -0.010168328645606309, 0.0014251218468703892, -0.00042709895651853056, -0.0008382190561451006, 0.009568326505715615, -0.004227618044254341, -0.0009356892645358341, 0.0076355681249957175], [-0.012079862404674284, 0.006100078437016859, -0.015791144698929352, -0.008914503459698731, 0.01163089226739471, -0.0007761500673616848, 0.004313061332452895, -0.006580957899102644, 0.005476447162790595, 0.017308525940780098], [-0.00698934447355224, -0.0022696936695561247, -0.004310399421626927, 0.0037219433630596983, 0.002570153616800406, -0.011250313088675148, 0.005848394856962538, -0.0029854312673264446, 0.007967713182408338, 0.007585010659326072], [-0.006065982890970077, -0.0040397854705457505, -0.0033055466794632772, 0.008627815634025763, -0.0176042631453213, 0.0064652104114158206, 0.014773969167054899, -0.0019355923670874272, -0.00034029157714542986, 0.002232899019644315], [-0.008675757278349043, 0.005660629667012582, -0.00871641105263552, 0.005212529475360802, -0.0037921394244889235, -0.017296733123103376, 0.013726564455723242, -0.006711415061183987, 0.00854128330614581, 0.013023077948267176], [-0.007560659971053357, 0.005612313773404278, -0.009522870177085568, 0.0011575694115546114, -0.004146679828368051, -0.010937203293444428, 0.013035446544146796, -0.00568387086245144, 0.005436252366130876, 0.011039893663487574], [-0.022217489013741997, 0.02013711224178817, -0.013711990635315767, -0.007882072169265054, -0.039658870905269664, -0.03362136393062237, 0.07612960487436671, -0.016189396282496125, 0.008954351828258073, 0.032286903521356984], [-0.019748409010757133, 0.0034887594762269894, 0.006753395786479052, 0.022294730529857466, -0.046796709962790194, -0.0053032215408954485, 0.042793148166445305, -0.01514700975038505, 0.0020761294748617527, 0.010832357220830932], [-0.010761212413142507, 0.0009224938596702233, -0.0032566501344508596, 0.00978663466954579, -0.01715826217069318, -0.002045874389991334, 0.020674380791668126, -0.0077344368012581535, 0.0005512338009925284, 0.006673435500024011], [-0.024132492993067464, 0.0017735831449815546, -0.01829164994210591, 0.020569219586963474, -0.026462702141239445, -0.00760037719040243, 0.04935838391030772, -0.015032793877095685, 0.0035642436832340305, 0.016617903998291918], [-0.01592783461838472, -0.005484966712101231, -0.005058629169917284, 0.03300787486816861, -0.021288295254759563, -0.009899732124225848, 0.019999384215347586, -0.010813359471830581, 0.005895804698627952, 0.004969207840730302], [-0.006958327075122471, -0.0018541586036907734, 0.0076437857134378775, 0.010203394790163738, -0.017671312051408705, 0.007920195736123431, 0.0075960449556945545, -0.003690220537952676, -0.002888514658588655, 0.0012402913262566768], [-0.013213408787980174, 0.004460745585912029, -0.0010779987576874312, 0.016215119633530246, -0.031735653043277155, -0.015627169493823687, 0.03621690207575899, -0.011269430955377234, 0.006262725304295257, 0.010475758016961566], [-0.011059366093387589, 0.0036812093778606112, -0.0025113110438451563, 0.01164308216149793, -0.02428280849556147, -0.011080180242962053, 0.02731386806620313, -0.009774281095202965, 0.00532309750085928, 0.008555968737611847], [-0.033345269960729694, 0.04427330810251395, -0.017814975075601928, -0.007426571186757678, -0.06914322037905299, -0.03767146545445278, 0.12397086367680449, -0.024868540816332316, -0.004037279904183629, 0.021920142054079963], [-0.030897864808445936, 0.03238097520230754, 0.024820229719030584, 0.030032300622347047, -0.08096211855457187, -0.00503684023353066, 0.0678878582434246, -0.016298119648849013, -0.021757033068319883, -1.0160476704858873e-05], [-0.015474147757497279, 0.005461667335107015, 0.007273756272007048, 0.01598808271740085, -0.029998032600430866, -0.0012287299343872028, 0.03007712651065761, -0.0080436583674195, -0.006275435899141655, 0.0028401971150789278], [-0.030530726558388534, 0.0020379131808715466, 0.00815557500799024, 0.03163672342942648, -0.061898172066592955, -0.001300544479700879, 0.06356756817388011, -0.017542979636206452, -0.004844456775950094, 0.009631354829868773], [-0.02642169801829485, 0.004096336557760016, 0.03601058573908845, 0.058445408804102046, -0.05497152390502671, -0.0020235917428340776, 0.014437138368973701, -0.01476808708070125, -0.013291492013325412, -0.00253241507734654], [-0.007593061444247819, 0.010578950995756507, 0.010171825144055143, 0.012471837438179503, -0.03348799444703068, 0.005921630564604942, 0.022862109846456626, -0.004458005436492836, -0.01119392176697549, -0.003577490074166137], [-0.022252780053246005, 0.025334005357096175, 0.027816863617973402, 0.02386885061104229, -0.05673893594735327, -0.015054145603490474, 0.04137909430333582, -0.011776541367631345, -0.010747618454475812, 0.001948962156568759], [-0.016722874673856754, 0.01805591766084155, 0.012028109364358082, 0.017404462528933788, -0.039800216067422435, -0.008977295837037855, 0.03610349954767939, -0.011478929835457084, -0.006615298407093862, 0.0025497462353581747], [-0.04389710787902565, 0.05280925316924375, -0.0011058935537667405, -0.0007809941729155462, -0.08625410778258272, -0.044359418795195164, 0.14294780862433104, -0.021485798468468202, -0.010204665317683341, 0.012135522632428036], [-0.017598697204033936, 0.008763691471405663, 0.00898010448892946, 0.009066888709436692, -0.08329556041916093, -0.016559012510778414, 0.12945697543273524, -0.009059233135752978, -0.021916426974717622, -0.00826980988219313], [-0.018675054437732937, 0.012599231456372963, 0.012098117970729403, 0.018159879263180707, -0.03726163841560906, -0.004090519969842725, 0.036509409097226296, -0.00797794841351152, -0.012317223962392229, -0.00226438017130237], [-0.04375509494834271, 0.03088690883528091, 0.04667923127653813, 0.05776958811354301, -0.09704154547262331, -0.007407377642484812, 0.0731707934279401, -0.0180901299555477, -0.03319952678323631, -0.006981604436908176], [-0.019461610987448707, 0.010588011121328282, 0.047663181954124875, 0.056145799883866594, -0.08207447493642006, -0.004935102192331327, 0.05302182941348589, -0.008654585036497409, -0.03278333533587764, -0.020608598029124646], [-0.003974730549974748, -0.0031725260130805997, 0.002744396767908694, 0.005092227544310379, -0.031856525623704925, 0.002188213669362549, 0.046213034751499245, -0.002904510945814302, -0.008411978634579625, -0.005785124403468329], [-0.017530312050910494, 0.024438269803754718, 0.017317014240610256, 0.011698147647201238, -0.06695001428383915, -0.025009339241304804, 0.0880265185975613, -0.008142259348413814, -0.016502571042602887, -0.007407519990825513], [-0.017323887141326308, 0.016097514143318156, 0.013188883135420684, 0.014541803728328384, -0.050108886505725, -0.015988865536003528, 0.06176102765891715, -0.008226289167431709, -0.00942021050329866, -0.0018904088197227694], [-0.031868462312905, 0.013827643167604028, 0.019707132063398945, -0.01749990014039326, -0.06249517914968174, -0.04507426800775065, 0.14409462027329564, -0.01042483428926478, -0.017860269125511422, 0.009108974345964227], [-0.012992607635440488, -0.0054537965919614515, 0.0027514047227825025, -0.01218066365518982, -0.02924480014077008, 0.0046559281987955375, 0.07336378115462322, -0.008102235541933995, -0.008461012398813203, -0.0036730924801261612], [-0.009240365224019841, -0.001962331169199469, 0.01229078220412122, -0.0005065341621020361, -0.03229279475805349, -0.0022212737741533774, 0.05119144231956108, -0.003350094653935918, -0.010568562194521137, -0.004060307920115728], [-0.01656045354945833, 0.00341521787470321, 0.02623552445467692, 0.00545877615457335, -0.09968902462646277, -0.014968656234858553, 0.1585934544618184, -0.008735850249541516, -0.04121517528805484, -0.01504437387381509], [-0.0007892719458720295, -0.003716932205253091, 0.016538652442163296, -0.0031919496286375282, -0.05628890831403857, 0.004406689645191866, 0.0847694249880807, -0.004748066524838833, -0.013861833731063302, -0.022268974938749724], [-0.0017335312799109227, -0.005173541356323316, 0.00384909651174935, -0.0014038586396642443, -0.011388583067061489, 0.009522304619659664, 0.015785736030374406, -0.002771464965565929, -0.003303427500602175, -0.0036232121276624845], [-0.013824728960457265, -0.00016510760730801874, 0.009201556857484383, -0.00992415246096864, -0.03316193612822784, -0.01034509359070129, 0.07796609771777359, -0.006616821477471753, -0.004243325450385613, -0.006980052835765785], [-0.010648175918733849, -0.0018063125933057266, 0.008188204018282404, -0.005835734312245302, -0.02896094037321627, -0.009149871167586091, 0.059574351351871314, -0.006120012963040452, -0.006001408550188727, -0.003912419428959912], [-0.03216556752175252, 0.00949939731840405, -0.019484603905486998, -0.01924268536840239, -0.010210633182746152, -0.026495772105830415, 0.09993365727843863, -0.013503949881563986, -0.0049268446165687966, 0.015468291336373046], [-0.01951208056319257, -0.013168356704566836, -0.023876532730762703, -0.0016894099755868789, -0.002686383983791814, 0.02156361595022231, 0.04750857994678873, -0.010320996005410905, -0.007021176052379418, 0.006157326889429131], [-0.010665047746160537, -0.004168553470956893, -0.005842823563096801, -0.0008465849279157278, -0.0023328456723067446, 0.008482476558783626, 0.028105676239639443, -0.00501209480908405, -0.004495658092968979, -0.000998574038380241], [-0.023403831772857663, -0.00838106123698289, 0.007872845266707434, -0.013457553230851148, -0.023973438028104657, 0.011861332425974586, 0.07662168530632271, -0.00936292964864141, -0.009944834859094408, -0.00832717905165174], [-0.008891685339549121, -0.01817692565917842, -0.0060035799548493795, -0.010130991814290677, -0.006940728701644806, 0.03838763065550248, 0.026602734310762908, -0.006636178656782039, 0.0020892387120969944, -0.012033137738284527], [-0.004507387555814086, -0.006527147653106718, -0.010294551280727695, 0.0037382096340485725, -0.006513357689814058, 0.014519127341181416, 0.015427260558525313, -0.003933156528209319, -0.004551201264346627, -0.0008283614089927195], [-0.014746901432579253, -0.006448486973709384, -0.005395197087284354, -0.007081414708313075, 0.0006030060060805158, 0.006961330104254739, 0.027136822636789217, -0.00864645408487381, 0.0025489736261817553, 0.0010671357837808084], [-0.011474973407194201, -0.004901004343997604, -0.005527929679282739, -0.0036716977168986874, -0.0040927949109222745, 0.008837449215899773, 0.0286427912360564, -0.007418312341059313, 0.003096207514046304, 0.002963205604143698], [-0.023125379921779182, 0.006938579582768797, -0.06403785975260867, -0.016298570432908766, 0.0020294613782591317, -0.006659228678337429, 0.08668457839377125, -0.0153310665307562, 0.0013167979284481087, 0.024817209507530448], [-0.0038627722363508937, -0.008822944089794933, -0.04996260680334192, 0.00473912653224941, -0.0061070923291949766, -0.0015144738422081683, 0.05578673968527824, -0.009508471687098513, 0.004028708739799621, 0.012571142619723155], [-0.007664771862385255, -0.004759714257156577, -0.014348925244883303, 0.0013551303372701295, -0.004219937867785268, 0.012498873878012323, 0.025771581680227112, -0.003836457523348542, -0.003447284634498178, 0.00494970971350749], [-0.019532883703646906, -0.020523801093229137, -0.019645134950181484, 0.0026915226061142773, -0.007717924834343321, 0.031522518970232116, 0.045924375179534745, -0.011158620763679251, -0.006354298068705061, 0.005298537586282849], [-0.0009726883091905704, -0.03017668776441888, -0.03543002910022155, 0.004284686619193868, 0.004229904578992448, 0.033008020835924225, 0.025593784655186552, -0.007170931505584418, 0.005130691864710078, -0.0014387237670571487], [0.0019024971096528304, -0.006364099882601233, -0.011388252815945804, 0.005838683025506965, -0.008652255954761998, 0.004097787935641401, 0.01701987245235025, -0.0022116755945145766, 0.000630387134166255, 0.0008300357718757036], [-0.0012684791307915491, -0.008277479408087499, -0.04162420162436246, -0.0016434196326555503, 0.001116183151537752, -0.0014163654649670444, 0.04187294664164878, -0.007005952070896519, 0.0077266207985156, 0.007857169358281336], [-0.005319123632361991, -0.0072372064683824885, -0.03009338166614052, -0.0033557358459300477, 0.0006477940957032871, 0.00541539584452572, 0.03549306242552796, -0.006012676683824907, 0.0034232056151093132, 0.0073509920823491195], [-0.014382800228804782, 0.018252884012722126, -0.07652767742707602, -0.007946835021787387, 0.01437959417138957, -0.03639937308724803, 0.06949065757779091, -0.0084104902220465, 0.012565386633543804, 0.03162349486227047], [-0.00280475597044254, 0.003115512191711924, -0.03386537894581358, 0.0033547907647079817, 0.0012069815123268218, -0.02157179576600079, 0.03637906594752116, -0.003195638687676459, 0.004276397562405938, 0.014936049071912103], [-0.0025630721967099036, -0.003470344199341673, -0.02048140326770001, 0.0061947369090205985, -0.0020662872791479764, -0.00543761085066111, 0.024392138805076655, -0.0032155617938255817, 0.002183502048731556, 0.005202506876100717], [-0.0014826758391917058, -0.012431148189313682, -0.05788257824633543, 0.017586356881034684, -0.007463617252894403, -0.010215695517298694, 0.06015919206179142, -0.008277698980388909, 0.00737558910303093, 0.010950347159606457], [0.012240947273715871, -0.015451286921809403, -0.05051041667247701, 0.014484832519203525, 0.0022164270247956018, -0.017608579729115864, 0.04747083455733107, -0.0038524778016317085, 0.009156547360249285, 0.003645424199225316], [-0.0016807445699378418, -0.003941275567946757, -0.0034222476315772846, 0.004861361917588483, -0.006229788991317277, 0.0016321422268512481, 0.005991998978688615, -0.0009694630679324554, -0.003011600835209685, 0.00035057288293549393], [9.81415005766087e-05, 0.003360148570941929, -0.0421133277357285, -0.0001830605217180837, 0.009373089905236042, -0.027028998229029048, 0.03818157144432239, -0.002046285514673523, 0.009431617899805234, 0.010289096470621333], [-5.795341358448345e-05, 0.0009337595287504477, -0.031087589927291243, 0.0023946260615773964, 0.004669895202295356, -0.018413779012335003, 0.03232071425013127, -0.006072291290380185, 0.006782133965449208, 0.010168342132754573], [-0.010936279155903273, 0.029100367408779772, -0.06077160714850567, -0.01103389838186944, 0.02461966978025252, -0.035836678991832, 0.022444513540582047, -0.0037205311489633117, 0.013072767357263015, 0.03252402673910134], [-0.0076462708729128715, 0.009944776800794974, -0.025123160255683764, -0.0005072405677912173, 0.006338039244795778, -0.010525579839036696, 0.009019035982392553, -0.0024327029062703237, 0.00625365546407865, 0.014468535668106812], [-0.0033754421703324883, 0.005015608552650001, -0.013955677278078194, 0.0022739304824256324, 0.0013522665876096141, -0.006114973224793071, 0.012110750002399178, -0.0025416300324228266, 0.0007189601257178354, 0.006807392998196048], [-0.005796584012197279, 0.005432505260655352, -0.03912517178657149, 0.006438260573070857, 0.0033082998899529384, -0.022858698362095017, 0.03640879840743345, -0.0020192775246960426, 0.001445832671163221, 0.015332463176239576], [0.0045901213475908805, 0.0009862482768856942, -0.03279988031948052, 0.00174467292412493, 0.007949871027531976, -0.02814590240523655, 0.03349673382792742, 0.0014789327804689701, 0.004401466199560071, 0.0056807035589812255], [-0.0027041581504357085, -0.0015701544142117424, -0.0010603096778425687, 0.0055366394551648, -0.004242886014882793, 0.004253083635529572, 0.0007479918990413261, -0.0013699235289566592, -0.00010920780831231179, 0.0016737619603616007], [-0.0014531526215181307, 0.009400985743556932, -0.031579998369973133, -0.00393424440512371, 0.016465881486071945, -0.02287143276566708, 0.012341882493035828, -0.0002962991073636162, 0.008088730891473658, 0.013092573295420223], [-0.0028210259857764076, 0.00802914172443976, -0.02402069135390631, -0.001654923680718754, 0.010429433517810938, -0.0147463017230948, 0.009939588538226676, -0.0035938448795883892, 0.00510462220538146, 0.011388671692306378], [-0.011833896233202832, 0.033353980481721626, -0.05511654023560093, -0.013422835709398392, 0.02732565777259075, -0.02878081583926254, 0.004272127053473576, -0.0038739003893974804, 0.014873606505090132, 0.03332263671436472], [-0.0049751384209608404, 0.010853163654730883, -0.02129417764340485, -0.0016619991279601966, 0.006381388465580586, -0.006273081322908412, -0.0006591549195382267, -0.001929056179301327, 0.0052850166999259115, 0.015336069538769554], [-0.004784732926532873, 0.004892675595405071, -0.011440484657543036, 0.002229047177805092, 0.002649141538459407, -0.002656818925381215, 0.001730790003072131, -0.0011006074451870157, 0.00046599251255754283, 0.008164616397705545], [-0.010966061664876344, 0.009368150081334858, -0.027009290393283796, 8.02322052033707e-05, 0.00869195814576254, -0.012409842175142828, 0.007912977554632886, -0.0018258759166585794, 0.005512357981132404, 0.017399299658801576], [0.00041929473268055513, 0.004769882039773621, -0.020306731804731817, -0.004773175757522029, 0.012929226832859023, -0.021854607642087628, 0.008868570394019403, 0.0026629874071758745, 0.009056050627317081, 0.0062331178829856055], [-0.0027815620876318965, -0.0016696497985774577, -0.0005516461559727446, 0.003234360685063969, -0.004979001015070493, 0.006554393224618846, -0.000510172094988185, -0.001239708722849315, -0.0008396600511382667, 2.3308386127710837e-05], [-0.0021360831194008256, 0.011683352503573347, -0.026488384156687365, -0.006227901391152244, 0.017208787907363698, -0.019181462023967793, 0.00015624192917840335, -0.0007536913985141144, 0.009319569119736148, 0.013804154507206743], [-0.003034971704565311, 0.009999690172787153, -0.018201827835238632, -0.0050921516633728875, 0.010091577765564066, -0.012547810165206487, 0.0019189194500249468, -0.0015388489189065869, 0.006196713155729554, 0.00964101924573478], [-0.010972856728605759, 0.03252988310033234, -0.053217630190892165, -0.013485397698622954, 0.02731246241018944, -0.027699763508542384, -0.002763828739119468, -0.0033205097935513823, 0.01536551735205762, 0.03475608040137812], [-0.003892062795164153, 0.010375942995875529, -0.021860947552098366, -0.0019162455062513612, 0.006643198483053478, -0.0068484462802066645, -0.0011602952494090665, -0.002338293814868089, 0.006305806029728992, 0.015287033462516442], [-0.0024151502502700564, 0.006895191579373045, -0.009616566509313095, 0.00013688883351364859, 0.0011215944991981824, -0.003111760489596298, -0.002017265949730642, -0.002421267939730276, 0.001569577981642603, 0.006962289159982468], [-0.007012367429662222, 0.01209857652321827, -0.021041617992870056, -0.0012825496052388057, 0.009319149908082582, -0.007929765403272789, -0.003112727983963272, -0.0016829436674193159, 0.004895655303595172, 0.017855089859444777], [0.004709764236969711, 0.004727437166481865, -0.014803356154206703, -0.006660197761429875, 0.013116191591078573, -0.018276960278701865, -0.0028005505494208952, 0.0033997501654095988, 0.00870376117381193, 0.007345322708532438], [-0.0021855005251598335, -0.0021142112959219007, 0.0017666816401895966, 0.0018505841567871791, -0.006455131841305954, 0.004125949058940748, -0.0007051360428617874, -0.0019798065678680557, -0.00014442259375727323, 0.0010399805745747392], [-0.0011842576078300766, 0.011699141693716284, -0.02437402038664879, -0.00592707061502932, 0.017113176847871062, -0.01876213032562066, -0.0018201653930269024, -0.001954892393547543, 0.009772346930118903, 0.012863909104688508], [-0.0018809103200091016, 0.00997065413923771, -0.018231074576289915, -0.0033348429100731494, 0.010242008621962612, -0.013485907667501993, -0.0013153331327157903, -0.0031161086368513124, 0.007351901919770575, 0.010134179596471319], [-0.01190214483125296, 0.031816613803903354, -0.05299381371236252, -0.005560707331846624, 0.02647711123643856, -0.02917989316554471, -0.006017816613892789, -0.00399164649135382, 0.016406952004235607, 0.03354778959764898], [-0.008718337966422818, 0.0056621949578390405, -0.030058142632872816, 0.027168975102860694, 0.017706914933836485, -0.01858126297025589, -0.005079549710025514, 0.005599689651780581, 0.003466784563939665, 0.0031384271773138525], [-0.004320208332544423, 0.006536370356428349, -0.01288328590272922, 0.005909384970120469, 0.0042630861348899015, -0.007757585921440121, -0.0015523500781927328, 0.00010518058857018148, 0.0014113282927255989, 0.005968939519592989], [-0.007267939938772505, 0.01271890943482584, -0.02151564031409126, 0.003328274414804401, 0.009801996326698785, -0.012207409773141397, -0.006200413897881105, -0.001102085975991782, 0.00473672786076678, 0.016793963159617804], [0.0007356012974507038, 0.003116980456250498, -0.02471856275307812, 0.011386983018589241, 0.02592108860130794, -0.024464260111858076, -0.0015531155494809773, 0.009134977359309746, 0.007446450749504854, -0.0038448629454491275], [-0.0029277693594622254, -0.004709697168959463, -0.001482165849026724, 0.012164561897621341, -0.002345767385404089, 0.0022740994970245816, -0.0032294030702889292, 0.0015656322508851709, -0.0017270117708882411, -0.001264704617050036], [-0.0024476389889386023, 0.008210336037103015, -0.03210726593805168, 0.013707171856105314, 0.023528768535807012, -0.02518456030319771, -0.003910484573860421, 0.004635771910221818, 0.00842431180027588, 0.005026909533334608], [-0.0034807864323203506, 0.006973294403838137, -0.022671962005244857, 0.008712550058750608, 0.01598877822552557, -0.01583717592396922, -0.00306396695164121, 0.0006644239367380852, 0.006272004398950556, 0.005857966503194], [-0.019503490267516136, 0.012457894346095719, -0.018540842093428458, 0.010297639374770821, 0.022225420820917496, -0.03549519858030778, -0.0095114512091286, 0.0015417841729115462, 0.007799676017009323, 0.0325602685845007], [-0.019046411012407068, -0.01025823419687638, 0.01687019244197203, 0.024436617482495076, -0.00024812273853149527, -0.03283463972114294, 0.00570590394725094, 0.009521174816531515, -0.00628151499411319, 0.014486020825946822], [-0.006614103057348055, 0.00043631342287967634, -0.005037747254476593, 0.011426875588953065, 0.007981641527460526, -0.008585629813513226, -0.002173451650586252, -0.001098043766415668, -0.00041147571732444394, 0.0017021227014902924], [-0.013701748010009781, 0.003760241232899763, -0.032046600019879724, 0.04027757428297865, 0.026114212523888472, -0.026508300837989728, -0.009159693356670507, 0.006509584968884549, 0.003261951710785792, -0.0007377686624196113], [-0.004988642690920221, -0.006118408375064491, -0.0006083135170923603, 0.02878706228455066, 0.03039929649750922, -0.0482638307669214, -0.0007178297719891443, 0.012076857345998917, 0.0037108070627677498, -0.011779675213102856], [-0.006886207170344153, -0.00919356319875926, 0.01064434283717034, 0.009753558645906518, -0.010826107338251878, -0.0009210788338502777, 0.006956468896284362, 0.0025862333614049045, -0.006166374138612411, 0.005750985497393268], [-0.00986322007561267, -0.00451933587115919, 0.0043431028102765435, 0.01740744935305206, 0.0167387808477027, -0.03965789842172308, -0.002406620790758955, 0.008815627640218383, 0.001602875826092806, 0.00807673182868709], [-0.008764290447981953, -0.0015822655247583332, -0.00046542124499680343, 0.015526832719261434, 0.01061253957327435, -0.025962326229838455, -2.928438177905314e-05, 0.00527356698557829, -0.0002809744524692583, 0.007182946274767375], [-0.0619735755192026, -0.01515090250497396, 0.058452744295863335, 0.06834339031479808, -0.020655516228417065, -0.04855672234004312, 0.0368058594942971, -0.006220478205245484, -0.03702602393308546, 0.02828260093922425], [-0.05882436495679618, -0.026399422920925834, 0.0550112132313185, 0.04287957399352986, -0.03730068823274, 0.022112486012221055, 0.028300650688722086, -0.001278073014897813, -0.01646278400257572, -0.006776299911128134], [-0.01380848639385687, -0.006279537699848565, 0.008388479264831555, 0.009551210282103744, -0.0006392061052979188, -0.004082710504057929, 0.012090299832651412, 0.0004272233374604253, -0.003975506305590098, -0.0009858576932125966], [-0.024959053766597995, -0.011986685373720414, 0.0038776846318661017, 0.030678963896317305, 0.012969079491217466, -0.03580788071921896, 0.012787831540572406, 0.00041577391731455134, 0.0019396308382578914, 0.007872293124393116], [-0.024254105464586725, -0.019143218045656926, 0.041979160197236735, 0.010967786766001374, 0.00986027752502888, -0.0061511799773771745, -0.016782090400124423, 0.01482701557126623, 0.00871338955252589, -0.021960087631041254], [-0.022871666650743132, -0.009865200046445331, 0.00889852931310675, 0.02333591304059227, -0.020995886202570917, 0.017494993434338, 0.020029316522524557, -0.001336572694452004, -0.00820874101455269, -0.0055468294453842], [-0.036603918300128366, -0.020907919123456516, 0.05072259202509939, 0.02764791684331091, -0.012719833654951475, -0.005272959684891142, 0.003381711663220886, 0.006872779155103532, -0.010999323776315526, -0.00013909546196876586], [-0.02901603666903583, -0.011847600891615321, 0.03876172115114924, 0.02454852955096298, -0.012839690861818786, -0.01147996709298602, 0.008710984312782806, 0.0019302216361471673, -0.010798575591307424, 0.0012169668863705686], [-0.09214974937894674, -0.04085099280995918, 0.1098561450175947, 0.15913311176509004, -0.06793359635307986, -0.08146587193959948, 0.09076012622643438, -0.052700694746204646, -0.01747715493895215, -0.009885516194601362], [-0.04020199941557811, -0.028790662634707608, 0.05412433909477294, 0.04769118279632373, -0.002541372353322748, -0.021366367941370038, 0.0019062308083423228, -0.02173859524049326, 0.011507909347757379, -0.0015150878622044773], [-0.02740718884647838, -0.010792442465544847, 0.020060429409667204, 0.013822192228470675, -0.009335334076751871, 0.00024088407928457982, 0.02381246600240762, -0.0025404628664223157, 0.0042326395573067015, -0.013301546219181342], [-0.06966340639493612, -0.0309732794669697, 0.036220559435577164, 0.04319040855447859, -0.016861784021158954, 0.030895745239002865, 0.04008258989212195, -5.13889122748594e-05, 0.0030767174642659565, -0.03468967648093292], [-0.03842828134852066, -0.05701328173137542, 0.05677986990693045, 0.008811446617030125, 0.038428928482001405, 0.014994617966455074, -0.06431875338534285, 0.034575359303240065, 0.01787032673233096, -0.015263359136968555], [-0.007457298928930438, -0.002036109844725007, -0.003354940559904293, 0.005525275991691465, 0.0005219691629688239, 0.003883040239636649, 0.00624051063574321, -0.010739050517427719, 0.005333807408476313, 0.0025055593723530803], [-0.03891573357639101, -0.03230147455079454, 0.07234559857332677, 0.04495576060362263, 0.00258150692426889, -0.03339981150144405, -0.017048766420314963, -0.0023622772143642615, 0.001998698115221707, -0.0009859326535340152], [-0.03428172558334878, -0.024450027415622477, 0.05579628305489188, 0.04169040429422116, -0.007949200495062524, -0.0233620810726996, -0.00276162642818105, -0.00578620665982758, 0.0050059272332802435, -0.003943482726049247], [-0.05632389660409971, 0.04618975207261285, 0.12736479304382609, 0.17614294302640118, -0.1439886945267556, -0.11651678175758937, 0.038451638897230446, -0.10468896060557371, 0.06149047158507033, -0.025716147435388], [0.01288105348022397, 0.05092633175923679, 0.05938712438960528, 0.050486993919776034, -0.11280473599018795, -0.07591155105275377, 0.0008510195469431215, -0.06279833206018144, 0.0446302125917719, 0.031345419376235445], [-0.010027543773477235, 0.010613995557971576, 0.020996454732684577, 0.012242042362339469, -0.02607306249857061, -0.01918299260662925, 0.007992395541944397, -0.01601545381461707, 0.0115906278460806, 0.0060401834306832505], [-0.034520574665128756, -0.007974632931320856, 0.04789452236681195, 0.012838367057375372, 0.029984752119510533, -0.03641291795991151, 0.001813537795693531, -0.017496161403927676, 0.020947531475586638, -0.01689446759718313], [0.003776224719860561, -0.040342593016256104, 0.07508269955524784, 0.0363778664051538, 0.0031352865041704378, -0.06491019547026168, -0.11346711278212848, 0.010212824749400707, 0.009300581817890686, 0.08000700858167616], [0.005609012138522065, 0.02929106355224672, -0.008788546697141356, -0.003134157457748734, -0.04044832234505569, -0.006669215097191842, 0.024334751313610833, -0.013818917418889508, 0.005748314390269848, 0.011698340447679551], [0.005150608989610534, 0.01810623522522396, 0.09628873869608867, 0.06694012058745841, -0.0600296758830335, -0.0830436435700832, -0.0749795470012441, -0.04556346717199865, 0.039645138138561416, 0.039556159279964885], [-0.005184388296496557, 0.016364996539216265, 0.06520838259769884, 0.048066695954817426, -0.05412334164998135, -0.056418422381745985, -0.031088499214083416, -0.03396367674775585, 0.03293255541254637, 0.020184608391910604], [0.010614849692806839, 0.08898778474509247, 0.1888399593412939, 0.08771784746801857, -0.19433351587178316, -0.11335107558411284, 0.03274189306332492, -0.14856602562428348, 0.11839297487187513, -0.07354788127593283], [0.05136405153334007, 0.06757375225455264, 0.07323593240855077, -0.01582121044890251, -0.05996282900687558, 0.00466631026569695, 0.019100303320055294, -0.07508934803173865, -0.019207931369135293, -0.04754769628759895], [0.016190186987632766, 0.04180478995113945, 0.04895983743779668, 0.028632119293939405, -0.05816389263331018, -0.033781261707743315, -0.027097909200894752, -0.03960434244625999, 0.012699946621790472, 0.010548520284887444], [0.048303697886834314, 0.06678097284043417, 0.1257003662835011, 0.027310880501304775, -0.10864317166606878, -0.10590966789570365, -0.06306375715740216, -0.08803688470075283, 0.05375705972238396, 0.04209675612137981], [0.061358813040789384, 0.008797667918417114, 0.07454460305837433, 0.03139790286778872, -0.06380547257712023, -0.019290666684222916, -0.14667050445417745, -0.02150954941097679, -0.037597506817021877, 0.11027353878573476], [0.018362302448704064, 0.03162256370794277, -0.016536702182859332, -0.046901260549745, -0.007466118428665451, 0.013992344576254024, 0.05592467139107168, -0.013856037347770576, -0.01496899015540251, -0.02099892612828949], [0.042959981665022934, 0.042295370011409254, 0.10445479940159008, 0.045573903159187835, -0.06880362142777363, -0.02110370514874938, -0.09222232426303921, -0.06383989156073658, 0.005327357722661669, 0.008319188667842418], [0.027336039185510065, 0.03888155519716518, 0.07931044794567571, 0.03159814797018402, -0.0683568489094964, -0.026217726551323244, -0.03892485356380682, -0.052381073000475425, 0.008723525641609822, 0.004205976032275989], [0.0032587170464085016, 0.04881393023162798, 0.1270038798397737, 0.01884984011312999, -0.029098661593721434, -0.02957474139929967, 0.09508418822701678, -0.15260218113047536, 0.09862421323556682, -0.17974091006009796], [0.011998338178425445, 0.02511029774452158, 0.03866271297534992, -0.04164744806387269, 0.05819050785431833, -0.004260581571918526, 0.03606396969000105, -0.08383580901366633, 0.06842195005750734, -0.10687986608868645], [0.017918697391045905, 0.02391956248000497, 0.02309577813634436, 3.4774042389107045e-05, -0.013477835447938898, -0.006149452609715904, 0.02024958544014712, -0.038866222117629474, 0.001104826882622105, -0.030649262899661724], [0.08314716247850255, 0.09397257191213082, 0.06629664632986532, 0.025433878652811735, -0.02222825203244958, -0.023371152864252343, -0.07047094385821609, -0.08369210299974404, -0.019008551964477583, -0.05210502073382163], [0.0599309361541871, 0.01262427647107915, 0.029082045131187072, 0.01674745480598139, -0.031155636712327125, 0.03792432728879081, -0.115429176424213, -0.04320058544971403, -0.006966689898647168, 0.03801004372003794], [0.006782139813293598, 0.0196385302985509, -0.023536529372491868, -0.02835035544747781, 0.03294907231281078, 0.0009850223044168157, 0.015726499587885877, -0.01658474926771401, 0.021078147990435815, -0.029163239983187688], [0.010774988211178827, 0.022981383181323246, 0.07330734150087417, 0.007972494581682104, -0.007377753275243211, -0.006388616526774508, -0.018283963590076942, -0.07502537272606083, 0.04690770134456098, -0.05678966963483004], [0.011289711673907668, 0.012888962243959984, 0.04484496572863315, 0.0067476739855319556, 0.0014015135715799262, 0.0003673460704926632, -0.002209827522431436, -0.05711183275131043, 0.03159403593364333, -0.049090854104777405], [-0.003931508578738982, 0.039181310241625085, 0.02347931792144181, -0.07925426820070587, 0.03343264017041952, 0.0279670528986803, 0.1876084144204514, -0.14122168681333758, 0.09580294205437204, -0.18566190900516014], [0.003738031500377157, 0.06119862966081528, 0.004770885488654493, -0.03371569111845932, -0.001329618342546294, 0.01485655064057943, 0.09721242587995578, -0.08368868652900434, 0.02415038627122639, -0.08734871531230293], [0.010441034106160544, 0.0183239072309187, 0.02055855535848777, -0.020096858639481022, 0.007922807407827243, -0.0006592597909267022, 0.02672135747183392, -0.042521591325052746, 0.020379291796978966, -0.04050435960906862], [0.01981807868481808, 0.03536383574033075, 0.08529307432539487, -0.07119101381374945, 0.0382761454701061, 0.006958500816573962, 0.0247551921629225, -0.11160382063555285, 0.0724540586721758, -0.09962882737546563], [0.02747695009806752, 0.0225623528860407, 0.08448172902645885, -0.04270033264617172, -0.02209428655932159, 0.06553110358325412, -0.07462771666493255, -0.06993327513223693, 0.025445913373170703, -0.018225794847093583], [0.015501247498472258, 0.023735852474113063, -0.02972273309018578, -0.017219883307982218, -0.0012091976286704303, 0.004752833020179527, 0.043637832238852356, -0.020490647188469383, -0.004153892700470917, -0.018924003357325525], [0.0021719154966916773, 0.0437564797526646, 0.06817538529779898, -0.03190758273146655, -0.014691923857444882, 0.027792717527590105, 0.016465554837124485, -0.07461847662325295, 0.03720353149716119, -0.07305687222136839], [0.00028670266988131324, 0.02649550813525974, 0.03319351419085377, -0.0281274349904749, -0.0028456309041946957, 0.016540482862931423, 0.042054785852883754, -0.05887145734050328, 0.02941954220067816, -0.05863528775550895], [-0.017458547676129654, 0.062001459075011485, -0.0931985122545892, -0.05869012611993313, -0.010228000057669853, 0.02940861940120975, 0.22495856572229234, -0.09870965037020661, 0.08919218020993686, -0.12886113376077077], [0.002029230545623873, 0.06034580035057853, -0.05225208675031332, -0.043320260234153134, 0.003071738103909041, 0.014373572666120537, 0.11464377427418103, -0.04535031934432618, 0.014539270909489643, -0.06619622308130207], [-0.0002774916464911283, 0.02879319721069804, 0.0018866631825341933, -0.006893503533191351, -0.005775489181433558, 0.014777768704182487, 0.022509314194645167, -0.033648877413573565, 0.017974149908065163, -0.04074657255863363], [0.004767438878494611, 0.07112464010721793, 0.03751381026493826, -0.007083137399592701, -0.016609024323107714, 0.026174784966938012, 0.044101818278101876, -0.09003281534767155, 0.04170883324722736, -0.11112175353710267], [0.016584500516237277, 0.0486959182111711, 0.05558444723339428, -0.025623973733951113, -0.029236598336652795, 0.03369848045939585, -0.005264683435434619, -0.05740139397359739, 0.026788660846613563, -0.06404915481945876], [0.01114115673374737, 0.014265543258431912, -0.02768072234653033, -0.004636852564616042, -0.0004098595087675767, -0.008565515868811397, 0.03471105390014745, -0.010276522971510294, 0.006726540519980964, -0.015055470541763106], [-0.0006102278591172766, 0.0506409712440302, -0.01965638499714341, -0.03357300495781051, -0.013769878771323683, 0.021172942879345374, 0.06794595537814525, -0.04669900829636782, 0.03847214000131489, -0.06272915944301607], [-0.00019351099278217538, 0.03909219939803377, -0.023706920981786037, -0.021510857191655262, -0.011774273448946444, 0.016239786037864797, 0.06918093605748325, -0.04072334105571078, 0.028727389058330836, -0.05005213962123498], [-0.00625522224310535, 0.05655871530998136, -0.12651429763925237, -0.06489793854014196, 0.0361928918897905, -0.003421995070044748, 0.18001547193123696, -0.05851780403373479, 0.042966069369346216, -0.05493103826374519], [-0.0007878924092183694, 0.051934389323509474, -0.07173083569827977, -0.038339202219940874, 0.04516999340588724, 0.0333984462314521, 0.046757508392752264, -0.02996298018753534, -0.01616003410271774, -0.021536049448509977], [0.0034204251109903115, 0.012888855806751106, -0.015284971183726213, -0.02082771987821883, 0.01056634554131677, 0.005202070901896509, 0.04089282288425818, -0.019334278071613954, 0.008153781747157371, -0.02322087456655441], [0.002612354895564982, 0.06313458711157768, -0.0047832310628142406, -0.06488758554978981, 0.014356035408853354, 0.008967511487131732, 0.08652660015970236, -0.05263549690604111, 0.024200918064641818, -0.07543813050278844], [0.014907109760645012, 0.038549540601378676, 0.02513324711886971, -0.06233326349464884, 0.008795384153837195, 0.043322128857237026, 0.04038534513138553, -0.03419957576478204, -0.01909460556200746, -0.05418388253365991], [0.0016203710799119623, 0.014919871986869662, -0.011327684634788606, -0.0005181962971811153, 0.008945575931050265, 0.017199542978926237, -0.011367224441760278, -0.006515815457926609, -0.007598284647562663, -0.005064836994892962], [0.011491361360377428, 0.026576192567179722, -0.051896779513963695, -0.04337068672058674, 0.020194309180297593, 0.014897897443839937, 0.08373516075462083, -0.031878568249202203, 0.0022283789364183947, -0.030509429378624102], [0.0028619278136024157, 0.0251847804365839, -0.03523774265883712, -0.03200141764291301, 0.01659273385615928, 0.011513746155478972, 0.06447793134448777, -0.025446258894288757, 0.00025291975453480773, -0.023598808115123607], [-0.01752874451750678, 0.05054550130180234, -0.11625037864323759, -0.043611136675105903, 0.04757507569669981, 0.037479592400270996, 0.05837233458088249, -0.022290113517096314, -0.0012585510903879735, 0.002342300201773672], [-0.01465582307334907, 0.010396161070962105, -0.04328442524159872, -0.011791431975241217, 0.014807864830889562, 0.008260953324971761, 0.02131402348010954, -0.009403670846805734, 0.018081602757383203, 0.006547317416343924], [-0.0037504304192521707, 0.011725266518976667, -0.027909325198077945, -0.01310181204666017, 0.013278931306551825, 0.02362643659842435, 0.019233626047971093, -0.010573351960406907, -0.005303513004260463, -0.00613568083063731], [0.00017532428900153506, 0.04769628204007135, -0.07616973159396878, -0.04393281449997233, 0.049682396624271236, 0.066788523175402, 0.04543901337765875, -0.032254443917179514, -0.029265132027981786, -0.02665070278475406], [0.005220511722519485, 0.027796563533701375, -0.04575299391279867, -0.028474395623696254, 0.03407099464879242, 0.054860645821869426, 0.013850435343502674, -0.019076966705807427, -0.015058264513403728, -0.022907539933577796], [-0.002511325433455302, -0.0015194761422521342, -0.0016659582639413468, 0.0037648809973701417, -0.0011577750194336346, 0.0005904663324488355, 0.0017583797211087435, -0.0011924068674010963, 0.004444887131791489, -0.0006343482509526419], [-0.006750645061800313, 0.01851338508897654, -0.058039729599320675, -0.022529232865498572, 0.017435675221710297, 0.0257305426265566, 0.035014959206588765, -0.00927950776786191, 0.007150555010883679, -0.0004729247740099864], [-0.006426354343450127, 0.01607559970821919, -0.04266305567141371, -0.01667850677818897, 0.01658225400630873, 0.020008962745418853, 0.02487551887979804, -0.010551983706335708, 0.005000355482887701, -0.0013801918162016553], [-0.014676296019432364, 0.029429369544918357, -0.06673498930452389, -0.015378143274297325, 0.02322399207179983, -0.0178078399315417, 0.013301611693072651, -0.0074200784330674206, 0.025634901852354095, 0.029512105594185576], [-0.004026240760658936, 0.009056161511505402, -0.022140377558430884, -0.002415201815277014, 0.00646636662251094, -0.008217700684074555, -0.00033663807236331873, -0.0039720623239782584, 0.011887618758443302, 0.014739014931668766], [-0.006138798790915529, 0.004796754999226422, -0.013820399190988484, -0.0019068886194066718, 0.002032698038977149, 0.0006493471455214507, 0.0037907152072254487, -0.002489500080893425, 0.006525458084359174, 0.004168206391285626], [-0.014586284315586508, 0.006886775343418005, -0.04850084024080826, -0.006992786315237206, 0.0070773956844421585, 0.01123533115792561, 0.020819496470979675, -0.0058054807997133155, 0.02169542556560472, 0.00660065678076752], [-0.001202512792321644, 0.002672273873308068, -0.03092091938908155, -0.008484847148048522, 0.010811924433565009, -9.837087449822105e-05, 0.005747171634731024, -0.0011259432021035862, 0.023881985694132742, 9.409849543771981e-05], [-0.002382236721614582, -0.001778998801091404, -0.0009234575801391019, 0.003528569571222833, -0.004360435541727635, 0.005654047140090128, -0.001422207007990084, 0.0003535402413941333, 0.0019386850028714694, 0.0015002038470913251], [0.0008087166423237516, 0.010441001701310008, -0.03037265178432173, -0.004726906293970633, 0.011930264161992912, -0.0181776413891591, 0.007413222994685374, -0.0006185173291226394, 0.015049912977378465, 0.011791812786201773], [-0.0036256716379518346, 0.0070494869722684435, -0.022473846797089598, -0.004868452942104379, 0.007827507984555416, -0.011075032234081511, 0.0057598924476235675, -0.0010930117098791959, 0.013389782691291, 0.009695958975959233], [-0.012209202211622174, 0.033825218526403945, -0.05368793247865791, -0.01407114433748996, 0.02696662331035106, -0.029663651106915392, -0.0010303278575929868, 0.0024888914741684437, 0.014985760238536447, 0.03377766262938314], [-0.006051560326772927, 0.010941325951501237, -0.025667227351481317, -0.0015574617426604349, 0.004604381456135272, -0.009847657698750466, -0.004947448134255471, 0.01640350995365432, 0.003597258327285254, 0.013508020268175304], [-0.0023054817123718185, 0.005958347090286654, -0.010033182160721885, 0.0013884231123778604, 0.0027336966465584403, -0.002756507723885818, -0.0011212499611096024, -0.001257809992840132, 0.001868382685745889, 0.007371854119104782], [-0.006055196060682195, 0.012098755559892448, -0.023516356239019785, -0.0037966282295056387, 0.009806169903783888, -0.007474930392588714, -0.004468881562272708, 0.00038748066541116974, 0.005163712386770866, 0.015787402317918788], [0.004220198180769322, 0.007424278945184223, -0.01999608217987766, -0.008546917056617176, 0.012159048531263978, -0.017831497151418373, -0.0010903440103014336, 0.014833218754508664, 0.008991943964624103, 0.00523495418503397], [-0.0030010682889304702, -0.0013654249824754904, -0.001675468856146125, 0.0014508563225276883, -0.005179634031725785, 0.006493056391816644, -0.0017183907444375593, 0.006847240041872203, -0.0019253685047764463, -0.00024345556053304327], [0.0005260022657410516, 0.012173074478725879, -0.026977619023474533, -0.005200782054211389, 0.015777533825979566, -0.021371215655696225, -0.0033551104587057207, 0.01238508973235018, 0.007881135293078477, 0.010594936369276728], [-0.0019148949696454925, 0.007802525401603016, -0.019689954032781763, -0.005784660473619793, 0.009196742521949916, -0.012542766177867303, -0.0006249380424427332, 0.005642365849604613, 0.005927008916342491, 0.010469236979105163], [-0.01753735529521343, 0.021740744793316384, -0.060104749646728406, 0.07535210992989051, 0.040650747855891484, -0.08324787878086452, -0.020424950646446078, 0.03786295109130589, 0.0004789251070570629, 0.0023295303663690603], [0.00028479608627897607, -0.0014052278882517033, 0.01687903243745345, 0.08242873171190987, 0.0035709932269776005, -0.07662929378055817, -0.026965535300784244, 0.03999392918036696, -0.007969373455349404, -0.027999616770035592], [-0.003772312353879217, 0.005763734678800116, -0.008383161918511474, 0.014708747329090149, 0.0023065113144282966, -0.012654438182865508, -0.00638997113030074, 0.010578545269125618, -0.0023463323181037994, 0.0016040811563108243], [-0.007291119770342936, 0.009403504801466987, -0.02745871731753686, 0.0076032591132233415, -0.0016379287282986556, -0.013876597350608378, -0.009341867747990635, 0.023776919231265674, 0.0010619852192415536, 0.014306914048279105], [0.008026454791278212, 0.002460776176108455, 0.013498081274546067, 0.013879431286693633, 0.003423910620891967, -0.046356518400515676, -0.017466506774590346, 0.040100384113422996, 0.0028910644569068323, -0.014442393976265252], [-0.00010683189678379944, -0.0068702862282649935, 0.014886069170507941, 0.03155605512528269, -0.0015149498424742228, -0.01937161461539051, -0.009332063180787841, 0.012736965614545077, -0.006698683576803212, -0.01515399765266507], [0.001145784092742866, 0.004984252823658258, -0.00238237826926073, 0.04961457220949452, 0.013821611512375718, -0.06513735639517002, -0.019439528638582046, 0.035072110716824256, -0.0010883142781635588, -0.01612834030584051], [0.00042582920592920345, 0.0036790829739664346, -0.008290860291095022, 0.039331128995199534, 0.011524172130168934, -0.043831740407698216, -0.013579877222290067, 0.02459786631672085, -0.001627386821266969, -0.009188802678855686], [-0.03320706455504577, -0.014573296734608632, 0.04663224952655229, 0.17684054363724155, 0.04159343978253087, -0.17489332781607805, -0.03864822374774778, 0.03580865201085716, 0.011433907493553799, -0.05037383309174623], [-0.03011365218243275, -0.009522649456433975, 0.026029280949840774, 0.03268026030409455, 0.021866345297932792, -0.03357268400413316, -0.011172289698841126, 0.04751180969171658, 0.00925347474560954, -0.054949850747172874], [-0.0037674743899239423, -0.0014459524779782706, 0.011517789600355181, 0.040462716930461065, 0.00889341226317077, -0.02949054086036907, -0.0130047364951944, 0.014071983950082047, -0.004366410306727699, -0.02009196656369651], [-0.0013607590348881373, -0.003280308663142592, 0.039185183353938266, 0.08522224579533699, 0.0002251454387488505, -0.09001696703515796, -0.034265746179895425, 0.04420405425839686, -0.006549394603834044, -0.0342381738284167], [0.005707740050216137, 0.005295573049534157, 0.032210127234850984, 0.04086480385407339, 0.006463899148067136, -0.07226145904210296, -0.040920319910221936, 0.060721541288098015, 0.0067080396691856755, -0.04409272364690541], [-0.011869708476099897, -0.005091044478071422, 0.012299641744028988, -0.006336062549774771, -0.0024877773724388524, 0.014746452810069477, 0.006940914822619943, 0.009203243543803584, -0.002391948450319536, -0.01642736719398487], [-0.012715325799656474, -0.004085266016415021, 0.014952710245244099, 0.05812873509015261, 0.03692736145478182, -0.0721060675265637, -0.03174535481273603, 0.048627297773226344, 0.015842318631155088, -0.055738331912300314], [-0.012141105158780648, -0.004287790809688132, 0.016552663481676937, 0.05245014156302306, 0.015681340575900718, -0.05572128247991084, -0.018527967807507872, 0.02842115437535999, 0.011676637009579292, -0.035897641684869724], [-0.09149778247507487, -0.09500767495487718, 0.09204013603832978, 0.10109219486374353, 0.02538935510794484, -0.013613378617795017, -0.011025051533308116, 0.07055445288692991, 0.022879112602041608, -0.10389610852569789], [-0.05985147219132122, -0.07571268680456475, 0.0016828311768420992, 0.013654252339315049, 0.00474354627809044, 0.06598367495927594, 0.02963913307490273, 0.025180161128514046, 0.007244962981350142, -0.015317780044155955], [-0.01811558268130002, -0.011606886268541373, -0.0059220901935952254, 0.012386857397566207, 0.02470658079416725, -0.0008153634710653052, 0.008702219816534207, 0.03298355191048092, -0.005687818316620123, -0.03529847656501102], [-0.03225312583940291, -0.021236262579152086, 0.009010817017152315, 0.042284805650544585, 0.0602654544054768, -0.0458811419484458, -0.012625116590879564, 0.0740561135396914, 0.02174354662165547, -0.09481957387332837], [-0.004356607733613338, -0.012759993688520526, 0.00251158658931993, 0.001808365552549909, 0.02561935438842058, -0.030897287415380538, -0.04596027989207407, 0.07550972235696733, 0.008001966071726709, -0.01964242557735251], [-0.02634059780293324, -0.0245845858762322, -0.011839418607712987, -0.013184930599570604, -0.005743254879007035, 0.05758304063467823, 0.026802460273945117, -0.00954340837620602, -0.0018236058040425399, 0.008737151152433268], [-0.027466901327851775, -0.05037453591564981, 0.028974044075055886, 0.00627840895508728, 0.0324116701403067, 0.010573043266828366, -0.023574389120231447, 0.0476220856399679, 0.007765301021447566, -0.03174793684184724], [-0.027103659983766328, -0.03726909586578529, 0.029657803464991445, 0.009883379876677093, 0.014296080676852554, 0.011620512332435173, -0.0044563087653483454, 0.029603856777529074, 0.0016214873135229732, -0.025069744139613128], [-0.1020147161417604, -0.17795987015599363, 0.07934918180566247, 0.1265908161742346, 0.0072685869487013974, -0.0041203637937122645, -0.04285881651354984, 0.04470753166826377, 0.07962638339863126, -0.015043921937926337], [-0.02502939808897494, -0.07531967951416098, -0.03636401700407031, 0.10375534916676002, 0.003580741751092466, -0.02071062433535843, 0.002657509029861635, 0.06261617191370485, -0.007045514076357328, -0.009688355885766532], [-0.03723893407571433, -0.028201341886445415, -0.02828293717106404, 0.025703397621263207, 0.024254615430076402, 0.04221875419756456, 0.018325988792518528, 0.024443808227177722, 0.006767107028633601, -0.049894778493161984], [-0.06286228315235935, -0.08815841990209473, -0.06322289115726565, 0.017517455994814815, 0.04014932825192153, 0.07796323815890613, 0.041467056491706324, 0.049068014205696585, 0.07446126943904138, -0.08425880700655661], [-0.009016947238964342, -0.06691564930371109, -0.037762195481418896, 0.055718139308290976, -0.021208223264946053, 0.025020858039001306, -0.055382899460176105, 0.11418113436593845, -0.012098661396533627, 0.008146552729350717], [-0.0007460590316643437, -0.00863662264342287, -0.04496109163961316, 0.032956365017285626, 0.020746777056553718, -0.021987119973286614, 0.016191552795688652, 0.0020290554591646916, 0.0014557817018999615, 0.0019457492784664217], [-0.03725891473636111, -0.08233466346209704, 0.0034665510384887335, 0.06478588362668365, -0.00476180024465144, 0.035455316058404567, -0.05028722332377107, 0.09440336152417271, -0.020221190212439785, -0.003076142639730886], [-0.023949211856324846, -0.062181417543718843, 0.006584147523107025, 0.04744030609999631, -0.006461654950290808, 0.0068293968990409395, -0.019752725677742427, 0.04947937010854671, 0.0015743094003676777, -0.003370686610715187], [-0.026628363957372333, -0.06996510788867825, 0.04696316630462561, 0.22625675067572684, -0.15186860778608888, -0.12520431782121702, -0.154905167847384, 0.050095500674892934, 0.08164545673613662, 0.12737763806354338], [0.0070290985320308605, -0.005652077417412683, 0.0033960746476482794, 0.062237388030672754, -0.04118775466137374, -0.01436043620188186, -0.05844804297227649, 0.01618801158760126, 0.009711508475228418, 0.019553960842855846], [-0.003781415447749513, 0.004152369519703494, -0.020439330783303913, 0.018641952615366764, 0.03845825711621521, 0.00973537725418101, -0.016813272311983922, 0.031230560366274182, -0.015429657056178452, -0.040439567928557574], [-0.016206897220111344, -0.06891661252106177, -0.030644821893484095, 0.04573531433261177, 0.08357823310494834, -0.03008337567014997, -0.024638591401551422, 0.08985099997779074, 0.035229087229120645, -0.08286367773536016], [-0.025356509450018477, -0.06960853722910836, 0.031095974845889485, 0.06130106868371669, -0.043217432699369104, 0.029690987706832695, -0.09208595535191985, 0.12271261128082649, -0.07175970441565185, 0.05730131359252059], [0.023178408619998755, 0.02336801726934533, -0.027599266292355002, -0.0011334749774182405, 0.00842263455974589, -0.0028196512512605573, 0.00989215140128582, -0.021781698350117458, -0.002959755694727675, -0.007704862126506691], [-0.01893988421694597, -0.05973997892015144, 0.04363877301040109, 0.08432821380055365, -0.045854449864112495, -0.004466730995142511, -0.11839637395114856, 0.08391923732351637, -0.022562021196346923, 0.05901034407278443], [-0.008142008587721098, -0.030336916329242798, 0.012338883329812936, 0.07754257059210289, -0.04487673558814818, -0.012692348171809661, -0.06896503091759816, 0.04620536024046272, -0.00933072461101631, 0.04143871289167168], [0.04144030441180262, -0.037460858687756074, 0.11214251410689416, 0.1200768139058797, -0.20207832767212022, -0.04955540224266463, -0.2291370810558962, -0.09573412675285911, 0.16439838559662065, 0.17728088821174728], [0.003407686152360647, -0.06608853605392416, -0.0426328800223721, 0.04077767338768546, 0.030572678373939732, -0.04501951029044045, -0.006410280986728092, -0.043821482825066815, 0.058391889798290186, 0.06911211579455942], [0.020357274024903553, 0.03506074241699873, 0.027717198884990676, 0.025236064382638663, -0.008519301931893741, -0.044731755647519425, -0.06602541213212944, -0.02297733352279698, 0.009623859859492767, 0.024524650198051213], [0.033296823828400934, -0.012188116258207492, 0.03226062491033534, 0.016722283455286875, 0.010099402803364412, -0.08250216714609196, -0.11050109493339386, 0.015722524984592527, 0.08612851533533487, 0.010435261331368417], [-0.015191785086169859, -0.10070088579213729, 0.022486372413405547, 0.05609328550331949, -0.08875191069936579, 0.029693728843129, -0.11625230918686578, 0.09722315481030769, -0.03500674836666467, 0.14831179698556793], [-0.0008642807732205814, -0.014331196588645824, -0.05004712952283557, -0.03348432145166687, 0.1111347857944286, -0.015642702526543012, 0.05812247610351443, -0.02908389366980013, 0.019178195468975093, -0.04119412960838278], [-0.004058290353752937, -0.10339295079603106, 0.04157066487446669, 0.11746407807975225, -0.12644376616348182, -0.012265549238092392, -0.1407155600721173, 0.026689336983761844, 0.007184586842191438, 0.1932167609387339], [-0.005876991646830604, -0.052610322317945504, 0.016430837869816632, 0.06338844013835317, -0.07760535525732844, -0.006502149077843972, -0.0701470345768096, -0.0016623814087682164, 0.032379854670190826, 0.10468616162622019], [0.09080751545003642, -0.14316750026532826, 0.03220523777180657, 0.11171425490883817, -0.06870145923169818, -0.062106847427687746, -0.07098789219854984, -0.19958358186558664, 0.1741112112720159, 0.1360244306122127], [0.05003409709443841, -0.08113234185696909, -0.06260222894197574, -0.012553367282704984, 0.04135482878366811, -0.006739515609658855, -0.014681046327687483, -0.020711380033751326, 0.05503815742324898, 0.051926355682587175], [0.03899287249998807, -0.010044938416995023, -0.0018379654151479423, 0.047851922797864065, 0.04338601229434119, -0.056742938679556196, -0.049080976683629485, -0.03465106449242953, 0.00032739944164906896, 0.018467837465035917], [0.05703107990547613, -0.11353036636557842, -0.018416794587519925, 0.11103380977629695, 0.019447986073398125, -0.13780647539437202, -0.09202223783909112, -0.03626024957136175, 0.07026103464623827, 0.14334578639769482], [0.029208532353567126, -0.1306289809351218, -0.016801942808951777, 0.025419102486178225, -0.14493438867883332, 0.04068381513877472, -0.07978551117130642, 0.09305024309178124, -0.039389727763787526, 0.2229807403829012], [0.0067566965737337675, -0.014333194579132626, -0.026103250197666978, -0.04596284697772286, 0.10089829965098338, -0.051326463284249856, 0.01912997533387711, -0.0004659915254156112, 0.060885452897710475, -0.05002588202587085], [0.04631369077063661, -0.12683198709976914, 0.008557156882167936, 0.07920033695795915, -0.12565777824696575, 0.005126831506293035, -0.10135129560286227, 0.008703824581047792, 0.02348379389699192, 0.17910225119293446], [0.026949185176429608, -0.06720565703914537, -0.0333254411473286, 0.03773975558839043, -0.06792868743323571, 0.023511778842693277, -0.024653107070985492, -0.017636160599480914, 0.007633727388666821, 0.11382542638643747], [0.09967936311642066, -0.0677936000275323, 0.006263844632593323, -0.09002218918921955, -0.027768938618124406, 0.08908863695089646, 0.019948382703862254, -0.1035282949000704, 0.054168974254461676, 0.020181497143773274], [0.036938670066585966, 0.025185325758198904, -0.053492260055192815, -0.03282065372533585, -0.003557151949467954, 0.02352176850546822, 0.016202039928287216, -0.03491115596569793, 0.020337605927075626, 0.0053488843279601754], [0.02509067802084248, 0.0008612145040135749, 0.014302569386885015, -0.014613647091852224, 0.025722405661469883, 0.007065845601585772, -0.055110975871381605, -0.01856166808534948, 0.022704224921596586, -0.00591802262768808], [0.07238280079499305, -0.11643783771402999, 0.0106356793374648, -0.02591314435130673, -0.0036385475508660726, -0.0173072194417235, -0.06675931669829847, 0.01250514905705492, 0.06251438372258737, 0.07742659859595208], [0.0068757020862236975, -0.09594749211318872, -0.026722186794782703, -0.03594681325366072, -0.1586031773546447, 0.10680240600089272, -0.09723944021587101, 0.11697268423648975, 0.020868592000877276, 0.1656378781598655], [0.0040866448197487415, 0.049654796422974164, -0.016929865283154825, -0.012988968940325623, 0.05957158892106125, -0.04349046952559455, 0.028314700141575947, -0.016461670846686507, -0.005900526002274741, -0.045060402613789956], [0.020874564007681062, -0.06531782013231609, -0.002079146243570766, -0.018003789108425358, -0.10301916654742867, 0.10690024819029136, -0.08816114941641157, 0.030302375299014396, 0.027542996930610124, 0.09157429430361765], [0.02210139961756013, -0.038875057938751366, -0.033584880756650205, -0.022949091295817025, -0.06926066045617249, 0.06023787610327024, -0.0038428163235040675, 0.008892596361036275, 0.017646249580173544, 0.05978663537003063], [0.031181492958809058, 0.049204531443478555, -0.014452011168932105, -0.10778563057239883, 0.030339969449640906, 0.1228450805743849, -0.003887057278716002, -0.01688091440950932, 0.03581781216522619, -0.1274641254541521], [0.04188085849956744, 0.007304621225371771, -0.049861944045672804, -0.11978575896246675, 0.10545745830959088, 0.045306851040661435, -0.008760001752594927, -0.0014726282527009842, 0.034989021017259245, -0.05457238915788062], [0.0119517555314463, 0.025192341880201828, 0.018997442028567943, 0.003421857783427008, 0.017074444023905653, 0.0015657814498978683, -0.06124600874240916, -0.009561119515718234, 0.012561191576136917, -0.022377176623904354], [0.03198087555720662, -0.0037782195192261944, 0.04437579955661341, -0.032397920098173195, -0.041262652473055224, 0.048271731568340755, -0.10538351085512172, 0.0054701868228588975, 0.021275556651152057, 0.03495827730005963], [0.005044947738610629, -0.03293853306342409, -0.008095791648872228, -0.06560927676344498, -0.08710448869247592, 0.13202582617352074, -0.10832837630793246, 0.05466161942322712, -0.010168494078326854, 0.12016550792830104], [0.01527488546138594, -0.0069676036252882, -0.003926409628168552, -0.06373565010621378, 0.0758181885796696, -0.01865817434696439, 0.02105788701834052, 0.0001856476387500134, 0.018859640396458703, -0.03898545806527877], [0.019221383491486863, -0.007819805487443685, 0.011730225734678792, -0.04263307011592035, -0.02459405617482424, 0.07880632025942262, -0.08035714573214833, 0.04189022934879954, -0.02117158674828402, 0.02363616940596139], [0.008295726107072044, 0.0015746348710317904, -0.03265405268646407, -0.04916245220413264, 0.0003087758647143448, 0.08055436300709096, -0.03210437644706134, 0.02360854307150189, 0.0034344591735933484, -0.003995425732290809], [0.029599336954824567, 0.038041581807138736, -0.10807481972561403, -0.14276619365721727, 0.13195381351255692, 0.17102066735116597, -0.019284990897261312, -0.025106784252846022, 0.015978284518713765, -0.09586128164546694], [0.02133147601350845, 0.011604969955038883, -0.09296068584996282, -0.0456931741786804, 0.10791998252829102, 0.10258681690013413, -0.044393068758066506, -0.01383862058471911, 0.01110340178444789, -0.05995507616018665], [0.01993853287259836, 0.009618707966953967, -0.00809372162498575, -0.023313139867886183, 0.017180323440689614, -0.02093931078954089, -0.016148984330111336, -0.0062170878880420865, 0.027008871026988672, -0.004082080953207892], [0.0605997365802799, 0.010577523517395585, -0.0340191860764487, -0.07135036435030993, 0.04691057715227453, -0.024526922708409594, -0.06474998234075482, 0.014454485354786325, 0.027191565266274212, 0.03600685291145227], [0.04564810546335583, -0.020350570207219535, -0.03469146974630272, -0.043957572491434685, -0.0013446536795060967, 0.011721205601932528, -0.05999766732954174, 0.027453753707967026, 0.009011329968754672, 0.06876759487262223], [0.007010644122155292, -0.00377361882769441, -0.037207935390329454, 0.0038194550796975817, 0.04962931385716938, 0.007766680640169295, -0.0200389987386957, 0.0013145772289882786, 0.012870212029971642, -0.019233091971232293], [0.021832367690209437, 0.0015783361507897141, -0.043236386313071584, -0.06759702492580753, 0.04713315009464727, 0.06074987166812427, -0.030752842338537454, 0.013468257482315468, 0.008795319992308252, -0.009665702169735195], [0.014119515385794142, 0.006072569981789324, -0.056236077825740326, -0.051225102067846265, 0.04249577733098407, 0.07485498870932358, -0.027672714019983412, 0.0034163382962182206, 0.0011140783755828813, -0.009362556337911651], [-0.009457032206054433, -0.013105312819133708, -0.1330122073688639, -0.09114393567482974, 0.14248634291515516, 0.19971756993758408, 0.007489314416387156, -0.02512815322599964, 0.028285731926567297, -0.10354968283593753], [-0.0248372890321064, -0.021803694919307334, -0.04933685475273302, -0.03895234831719331, 0.10124801411774771, 0.07167994771329392, -0.01918614725515334, -0.013423882754936858, 0.045562086956733396, -0.04933756115305419], [0.0063062481219998195, -0.006554073649255286, -0.03758062159901676, -0.024532467764442404, 0.036240737039911014, 0.05160623194333028, 0.0026551872811546784, -0.0015617948789107385, 0.006523640487363214, -0.03203362360499495], [0.03417507686987233, -0.011160746486610924, -0.07478638163719126, -0.04465466323338918, 0.08806275112054511, 0.10209529671208363, -0.020463015145439196, -0.005105523866654692, -0.002774129799375017, -0.06279411354888854], [0.032771867833035546, -0.03441648012046901, -0.03203739597809431, -0.030317375361366052, 0.0465048852970227, 0.04284013921060764, -0.01955508847201561, 0.008418759279147156, 0.025710499197904888, -0.03734591647479484], [-0.002388762111136519, -0.009134256490435698, -0.005281747154875183, 0.0021031240799587333, 0.020141899412263416, -0.00961458603103868, -0.009157111215238744, -0.0005639931529283113, 0.021781019192465844, -0.007473889796140889], [0.0032420115103869184, -0.009256541926837676, -0.057095298412970744, -0.049740809444945036, 0.07489942811268349, 0.08921652179536305, -0.005591257346516415, -0.0008527011812989759, 0.01867588687296594, -0.06050233879914288], [-0.006728575000099735, -0.01392832723592838, -0.04264841769099647, -0.03416169707944383, 0.06379746508902163, 0.06722483539520548, -0.00486528816065219, -0.003943794411396058, 0.019067900062835305, -0.040752059494265226], [-0.024935081340709382, 0.0028153543635721177, -0.07214160829746659, -0.041885468838622965, 0.06882615466090078, 0.0481395819398185, -0.011014564463519916, -0.019849649877488502, 0.06498388253815666, -0.015935577413151488], [-0.014735572894668255, 0.008843425232781874, -0.024008155288338842, -0.00456270423212539, 0.00850036428727322, 0.0028095125368543003, -0.010052729207494462, -0.007799529110430234, 0.029857810389351123, 0.006347883710401684], [-0.006192268845316169, -0.005226078780805617, -0.01660592098342172, -0.008753040560198285, 0.01376646736657563, 0.022182454030673843, -0.0009991612728410693, -0.006847691905636316, 0.020162601625763485, -0.01363205392947305], [-0.022863418839247383, -0.026022993406687053, -0.04874381812407499, -0.05255716514891761, 0.08535395601215437, 0.09172618146512025, -0.017515082600557223, -0.01562661613017215, 0.058599621745100375, -0.053519912639389516], [-0.008370035285339788, -0.0163088814146945, -0.027286907838528246, -0.03440461845634247, 0.05703365567768911, 0.03562944210040495, -0.02020789142955279, -0.006237488497278513, 0.056740751967330576, -0.03632177384973216], [-0.005780581363443538, 0.0008339219951225098, -0.0010544164352718046, 0.002935474438506731, -0.0026729165593008743, 0.004499267179257894, -0.002628599055631522, -0.0017285239423983265, 0.002056269376477368, 0.003089280983126804], [-0.009732138806022422, 0.0002123239021773828, -0.0314316972000068, -0.017588259155480963, 0.03166802551536102, 0.0048618948780575115, -0.003802220222082614, -0.008846068197147446, 0.040187769336651545, -0.008361548037835828], [-0.006231983073863476, 0.0006284682845564184, -0.024414118497985752, -0.013389737993917185, 0.025503032658701828, 0.007245784135829379, -0.007151056625546035, -0.007559959807729139, 0.03286839916340663, -0.008431836245121243], [-0.010999968993466204, 0.033611162281714985, -0.05757236163050508, -0.017432565637985113, 0.0256330094489215, -0.033141986538318964, -0.003092054237605131, 0.02646263950584525, 0.012440923634177736, 0.024954909783789093], [-0.006849821272630588, 0.008615168142125242, -0.019918696720884133, 0.007420587362490607, -0.006522337996137883, -0.016101723535531357, -0.005441732647258759, 0.04370385509906091, 0.003011684949251727, -0.006235841209626276], [-0.005047587280672309, 0.00804192315947482, -0.008081169611412347, -0.0013366770089894217, 0.0037905779915349907, -0.0027160635826597944, 0.00010803198926178707, 0.0017749668000812194, 0.0018735571372946827, 0.004204148729363584], [-0.00786894779518914, 0.012507362373810919, -0.022934468532141736, -0.0023513240056276105, 0.011958692309669524, -0.009541498752996543, -0.0050163796754483635, 0.003690674738417789, 0.005145550457689015, 0.012397640197821868], [0.0043778933603068225, 0.0035187778378693727, -0.013403218632774567, -0.00346370345673514, 0.0072156141282932835, -0.021147322692785263, -0.002140852062446678, 0.01462566438289959, 0.011547604285417361, -0.0016839167165861807], [-0.0018274199272905588, -0.0023033489919686, -0.000793922993242123, 0.008139824953365788, -0.01028624688927235, 0.0012712843096107111, -0.002486524219899699, 0.01922600438401764, -0.003722238724730763, -0.00590985160861267], [-0.0011007980124509164, 0.009761043657214849, -0.024240793220710617, -0.0006189172478360547, 0.008350153090751693, -0.0258862004810991, -0.0034917542169201113, 0.02351090949181161, 0.00921206348805722, -0.00035921929093206146], [-0.0017046062594706004, 0.007602654579728947, -0.01935975379544597, -0.0036202643945085137, 0.008571415161526147, -0.015609476796091568, -0.002828751629523692, 0.017336643074704016, 0.005071869138796025, 0.0029554438269599114], [-0.011411465550938233, 0.02595209377466216, 0.002574420197751562, 0.10826060781687552, -0.012884779056115065, -0.11290659715926274, -0.05166422946190984, 0.11233365446304926, -0.0033662095443620027, -0.05247616975239174], [0.005314119869441034, 0.013170966324146062, 0.08020926312257663, 0.039099132394443514, -0.05046573108070744, -0.0770566523749276, -0.05367745327771554, 0.09109103734431319, 0.008396578456545095, -0.05405154587806269], [-0.00818084463985133, 0.004632013823215763, -0.004347564443433318, 0.01418076973153013, -0.007701691013732254, -0.011176382094255703, -0.00843559960077202, 0.03297171879461722, 0.0013663170642537943, -0.013010733552448122], [-0.01593223193828605, 0.00607803953273818, -0.0225499796148705, 0.02739025939207531, -0.014467551154357123, -0.022498915831582034, -0.007616665511140323, 0.05465683702699899, 0.005954876550485759, -0.008507540124822655], [0.0010535028957383925, 0.00829198424645354, 0.023003883678276077, -0.013193500987175057, -0.022814713405372715, -0.03235669102171641, -0.021769239091648924, 0.05831990802202328, 0.014262008539341724, -0.014567856602759662], [0.005424253260589197, 0.0003388820601062251, 0.04472902169281205, 0.015137034490322162, -0.02492952166367246, -0.025621874159413697, -0.02207152147543296, 0.03187652987711157, 0.0020636819065355185, -0.0259027926341147], [0.0006291133067589196, 0.012897471850309927, 0.031769228731635096, 0.017885676181186846, -0.029558345822197036, -0.05525887154065744, -0.037575502368388206, 0.06965387216880503, 0.012247608379143243, -0.0245912622588351], [-0.00012231149006414316, 0.008639400883522615, 0.02183463214631409, 0.025095094053153823, -0.017646977509978946, -0.04440415285519082, -0.025307416046818652, 0.050594255227989826, 0.007645704275141911, -0.02630084000011333], [-0.029979437804856058, 0.008506022453979887, 0.07254183728378966, 0.09967019025176285, -0.0554981378949997, -0.15492814468902036, -0.06884353099950823, 0.16110418392625767, 0.0496740805128363, -0.07972832762883522], [-0.017342419741013648, 0.006801240116265722, 0.0014081729341071905, -0.024698772651829366, -0.016135207035984995, 0.007264245586425762, -0.01681832714480162, 0.04011782621716755, 0.047724357102621504, -0.026248405320249395], [-0.00041577771879605587, -0.003080092067767546, 0.028742754539717988, 0.027497440465481963, -0.008601394790392335, -0.044899503555001725, -0.014286379921209092, 0.04192926363280931, 0.00842774072627193, -0.03480238699211716], [0.0019824965741239474, 0.005682345525697646, 0.08497790075075723, 0.010803326334688454, -0.044155464091251144, -0.07748113398552675, -0.04970884148183894, 0.09508090420684163, 0.039710025441763115, -0.0677892134311288], [0.01792303362830284, 0.01485149530642199, 0.06804907288073857, -0.02197120324107458, -0.056987043517838364, -0.041094682292988335, -0.05065954918436887, 0.07299749228488135, 0.007999994925310583, -0.009033500650588527], [-0.009184294411588122, 0.0004291258550674005, -0.00884556896350608, -0.030793558157841107, -1.7797340916172882e-06, 0.03848771304284677, 0.009035162795808746, -0.002222338836151647, 0.012432178745664598, -0.0035270018984831105], [0.00465093972717661, 0.0050014472111532, 0.04064230676806684, 0.012713798690021918, -0.046434665424294704, -0.051977091267066775, -0.048381655873910405, 0.08132027813642667, 0.02840601322771238, -0.025412658361099846], [-0.0032253858166958224, 0.005181766451985084, 0.02333260476999555, 0.003969034091349737, -0.029803170151054905, -0.03371349824439131, -0.025038137624716805, 0.05370110083298765, 0.025334701961414026, -0.016272519654373065], [-0.06467078533459225, -0.10185566876569978, 0.023219836192600356, 0.10924029477544767, -0.05132785586443931, -0.00354117631770093, -0.021098756618642196, 0.0749824255046879, 0.11174787472484174, -0.07779606988931062], [-0.07423732103539012, -0.06298553724402806, -0.010206541518922089, 0.036781449909288076, -0.027277062422475046, 0.09541498516918913, 0.03733164938384877, -0.028454569536419633, 0.025938717885393786, 0.0017446863238473496], [-0.014933710039011667, -0.01611658997788088, -0.00037611342162416036, 0.00023773168013856887, 0.034010203388434565, 0.009882877846761798, -0.007206057163445614, 0.03704382986592099, 0.031531063151363566, -0.07312889724441286], [0.0004929669449075314, -0.0192586669344803, -0.0015545439135572071, 0.0020455873231056366, 0.01153849725598556, -0.03805831105311391, -0.028925152850047136, 0.06132525868888812, 0.09852857819727477, -0.08683157937896736], [-0.001878898650977028, 0.008581730230924133, 0.1143613481409549, 0.08700523094996555, -0.05384015514437315, -0.07939787100625773, -0.051282432461998456, 0.03634628406162178, -0.029641718396417417, -0.026510799535473913], [-0.024766626969477495, -0.022553632395477762, -0.027579606633953764, -0.006854859126633556, 0.012321339788734153, 0.05627066882500682, 0.0397990928727914, -0.03903739010318015, -0.0023264116403875954, 0.015984180036142142], [-0.03514966387480662, -0.0323112272648065, 0.04342295183879387, 0.07622645473193207, -0.05500664875269061, -0.004443482596982968, -0.03814698671129402, 0.08306401965994938, 0.001034814092975185, -0.041319752701246826], [-0.030135306740423102, -0.025865128778097844, 0.018666005749364972, 0.03461032430626, -0.0358674186485493, 0.02315097770005895, -0.008380037534928157, 0.017502274066642762, 0.021417348477197336, -0.014817627620321275], [-0.09741256902700027, -0.19517709159660368, -0.0014574519363627764, 0.1547459579120841, -0.12376460721813533, 0.06912561360355968, -0.03464376175749595, 0.13846728291062224, 0.05592102547094713, 0.03407843230651088], [-0.011054696943587634, -0.038374107180497594, -0.01676905358392164, -0.014090997164608845, -0.0032163707377087505, 0.03320940773931048, 0.008871839110091708, 0.053017438967737085, -0.01434669948044628, 0.007587589662850491], [-0.05223427027955614, -0.047594014664677754, -0.04457002680441081, -0.035431910319745415, 0.05174017926705152, 0.0828531262553941, 0.015349349735963884, 0.011658381698783669, 0.06343088598104589, -0.04446401499447729], [-0.09430095620855046, -0.08742919521999064, -0.04108041181059928, -0.03930191573144047, 0.020743402307595606, 0.10710504070745946, -0.006818227011187116, 0.00788312146764158, 0.13245301404617718, 0.0016495580590087718], [-0.037133651658990526, -0.017393295319851437, 0.13588963361496367, 0.14581591917846626, -0.03598977045483994, -0.042053662796522666, -0.08960521029577485, 0.02575981377895198, 0.0047259562997524285, -0.08950381007504093], [0.007557505965124105, 0.010395081032790502, -0.010923053657174537, -0.0029192449427316745, 0.03023088860294163, -0.0159492782757298, 0.017547525046727432, -0.027533967810900135, -0.020423106742520333, 0.009144486770777012], [-0.03423058917254871, -0.0603598824971728, 0.0470930516996414, 0.052088060454676545, -0.05798691603347884, 0.01869800401452554, -0.05633647537594275, 0.12029799536175016, 0.007567469930440808, -0.0406880120170926], [-0.02238931672004754, -0.04070737988336403, 0.015493176988430083, 0.026658394712412582, -0.03368217776192238, 0.029806076295042932, -0.02090217050326159, 0.06809757892672627, -0.006257425307638026, -0.010159167521140886], [-0.0022228876274565422, -0.12325271028392562, -0.007097943552719588, -0.01138457224632479, -0.14852348508674718, 0.005399596661711087, -0.11382828226305763, 0.17081574654229045, 0.08083417577351575, 0.14852943634178564], [0.00814497929580898, -0.03275721542653466, -0.06864065621933307, -0.043605890013147824, 0.0045610864296239525, 0.05025354690874688, 0.0007969679186947596, -0.010416056424472532, 0.06244432938809566, 0.03064503115138724], [0.01781563988711895, -0.026176828209758394, -0.02518630305303449, -0.04826491448283158, 0.06402341825060505, 0.04639009607912618, -0.03910064083665458, 0.03001173709268502, 0.04260763517647422, -0.06204738875163268], [-0.014334453431572912, -0.09608770665309713, 0.0017656217688881823, -0.09902417913027096, 0.03757271637693247, 0.05565581349227896, -0.03476858722699781, 0.01692370304284543, 0.09956772519373754, 0.02676301615191755], [-0.02721444578067089, -0.05992582145095651, 0.10111830136386224, 0.14564092737856424, -0.10783446878108396, -0.00040521339778931285, -0.07543083796924441, 0.02622943000281822, 0.027918286308206305, -0.02875686860459298], [-0.0011209959684453867, 0.012103904724825433, -0.028590914670665015, -0.03259129398263981, 0.07526023005287152, -0.03200917692258337, 0.03269220748155818, -0.06708231877307254, 0.04153820681144287, -0.00024204577329527631], [-0.010028090701866865, -0.05299703437757586, 0.018378214753971563, 0.08679453831213235, -0.13180388694198408, 0.04096195711395742, -0.06907329354076443, 0.0750919794553961, 0.005094905710582582, 0.03436967092567097], [-0.01137699089938742, -0.0317465670802363, -0.002645040928631098, 0.028180350611872684, -0.06082130356616763, 0.020678984482244547, -0.04050190163410301, 0.04055617980070606, 0.03164935718958455, 0.025164822575486006], [0.04289680117868111, -0.07448956613836166, -0.0504877948740858, 0.06399882740680378, -0.2955125660983965, -0.0827078870617509, -0.06454820679760694, 0.0833325143171272, -0.016078611368670996, 0.3897557883652045], [0.03355251850849714, -0.021600223084936095, -0.006890234298675984, 0.02883603320272779, -0.025896564813771436, -0.1343744628750756, -0.007831025407615582, 0.028452352637861906, -0.01120479734241822, 0.11526421783826438], [0.02036341934448506, 0.021026541743935874, -0.00947606219076303, -0.032458339418570716, 0.020196468353241365, 0.009958353016761949, -0.059763541172602845, 0.023103442869498173, 0.009125763454535753, -0.004047165892645259], [0.030848647989874422, -0.06539497058266773, -0.019629174941174755, -0.07481468676917931, -0.025427599424555546, 0.028286910413862762, -0.06611574941487479, 6.713646798542269e-05, 0.0965351936031584, 0.09388982886336751], [-0.00884991451268217, -0.06971358431959182, 0.08474210354966372, 0.026915597617331578, -0.1664740382623494, 0.05689386329162926, -0.13517198962568133, 0.10883861686357235, 0.0917787257283233, 0.013816757887053601], [0.009825682853726264, -0.04792842995640444, -0.0020911474568894133, -0.013972745844472305, 0.10529819278935663, -0.13282964139255837, 0.045783893139685415, -0.03822836508959761, 0.06871382456495477, 0.008824800210005476], [0.014341716139911186, -0.021430335568300228, 0.05535796785705712, 0.07916755542109402, -0.24015459541037448, 0.020555008784626128, -0.11522571559776403, 0.08277523344718205, -0.03850068610055256, 0.1655401920123638], [0.01500943140776966, -0.017452072103031277, 0.02219230796537492, 0.042547196949601275, -0.10862401979979727, -0.024310083231694313, -0.03257291278706766, 0.031005649288981908, -0.02552943466420301, 0.10066210942298012], [0.09602911548003226, -0.0390446806031342, -0.009311108481299235, 0.14202148792957917, -0.26814368892733775, -0.15288160699809009, -0.1297917360319674, 0.18440666031553288, -0.12439463761043539, 0.30116755232734294], [0.047222218915895266, -0.04113245011513132, -0.03254840131895691, 0.09491782308619515, 0.038911809999822, -0.15073216077133916, -0.041212076625424976, 0.08612897100973776, -0.04148433847505807, 0.037308056066110665], [0.04047402538094923, -0.001711075973293929, 0.0455364333103063, 0.03553426404633024, 0.055798853574995734, -0.08320727540449507, -0.08767762157495201, 0.007905067633827425, -0.0092124870081481, -0.0025349030222278192], [0.05283118547519861, 0.0076134769503197405, 0.09456760818788212, 0.03842319845996351, -0.10913359973836839, -0.17754838965076375, -0.12070727383705677, 0.03161746722697586, 0.03399988763246887, 0.14618714392531693], [0.046657726275496525, -0.026902431851658255, 0.05973294010041907, 0.01386177460918854, -0.23660521090239742, 0.05527103019000461, -0.11593765645596696, 0.10091695238056678, 0.077103831434061, 0.024809826055199945], [0.014113245781402618, -0.02813018657702139, -0.01052620231540939, 0.0008891963309377609, 0.10699370116537783, -0.1336005019305928, 0.031258660980920124, 0.001898026077582904, 0.035390894693359674, -0.014644172765955712], [0.03654823205057824, -0.03741814187668873, 0.02398580946793094, 0.05471430238627269, -0.18543814375749398, 0.01675444344822095, -0.11896881247399371, 0.10619270582632322, -0.00835260093742794, 0.11260987765826151], [0.028579593551377555, -0.016960057284035865, -0.016747938151961902, 0.05443841518444618, -0.08179161711257556, -0.030318533850729527, -0.05803241250037159, 0.08967809719469257, -0.031200849782659, 0.06069929350229684], [0.15191731017033588, -0.05697870165643133, -0.03593379418266231, 0.0985076367610809, -0.14773228433691504, 0.0034702026765986295, -0.20628512727393583, 0.09752031413461551, -0.06725765212949393, 0.15985267776881762], [0.08912007687203664, -0.04042229963910396, -0.013909454647888163, 0.054366284517079734, 0.06391514071623516, -0.12598844471985357, -0.1375773917325547, 0.03695313033041596, 0.08415856617089493, -0.00855554815339278], [0.05797432630532904, -0.04236265230566553, 0.03621094770256499, 0.010245722481793715, 0.017674472495395978, -0.049874457259237656, -0.07078448447576999, 0.025834121259316868, -0.006020782916955365, 0.01773817691095727], [0.11983458754436775, -0.06286190147240837, 0.04389085829267108, 0.051862390163813915, -0.010223416183499456, -0.13875559098719584, -0.11958264720041507, 0.024982335813865122, -0.0178400328690275, 0.10582272160271859], [0.012643627407411729, -0.07393469084903749, 0.044765903328939115, -0.037727148662835046, -0.17057695058449635, 0.10966055534789289, -0.03494925781939016, 0.061301611329746715, 0.06290811622583659, 0.023361154014782004], [0.00736167224255911, -0.012181000498089036, 0.00040543694480697215, 0.008237083625890219, 0.11059906776341236, -0.14500604976758463, -0.022440515334185084, -0.04443443437492044, 0.10421400082112892, -0.005983817116570272], [0.07074077790777623, -0.0620408604376578, -0.010475183421335812, 0.018878685588981748, -0.15276819128105917, 0.08585756318739766, -0.11915821746819502, 0.09306056657867491, 0.02201434826640062, 0.05401196184788411], [0.04503648684101833, -0.01733558049979521, -0.030103539159810604, 0.04326307870540866, -0.061873424197394465, 0.013909928464264868, -0.07313131720800747, 0.06565761376482714, -0.0013641670217347747, 0.01876982628350631], [0.12411494496110209, -0.048922089072617435, -0.06531737330485599, 0.04296643008293582, -0.030059193210862818, 0.12092448909615734, -0.32770535684690644, 0.11785393452119153, 0.10017016939531558, -0.03540922593950997], [0.07252572310081346, -0.050406863819735144, 0.02045570819666607, 0.019333858786709294, 0.08894886987127128, -0.03148785106101226, -0.15763575670326677, 0.03534262040862701, 0.0780909191508007, -0.08019337474405096], [0.04945785654136859, 0.0014578394104435165, 0.025631984356104868, 0.020212221386952747, -0.008371879257386123, -0.031156863800177605, -0.09482060107608606, 0.04034745190588526, 0.026367835604064215, -0.030078678216811035], [0.12928421288724098, -0.04458233164094618, 0.03293563382665378, 0.024558908201017627, -0.021857509805018865, -0.08992978411166674, -0.174808243191811, 0.09606503210065051, 0.09720938305378712, -0.0497408139723261], [0.026747406632065155, -0.08483026895369267, -0.008280033233055204, -0.05743942864587953, -0.11497712965333351, 0.15822513904703453, -0.001507203071557357, 0.06802846827958448, 0.043675613530596416, -0.029438551180487847], [0.040216584476944185, -0.03225818243888739, 0.032317948513153935, -0.02187846314191615, 0.0983532049064035, -0.09566031250519035, -0.021521776731535238, -0.012745725752772916, 0.041317181583510706, -0.027384585275273873], [0.04218720346576796, -0.05375142868747292, -0.041798039960820974, -0.004344925626032011, -0.10167261366281724, 0.1398611356819406, -0.12567057259337283, 0.07585751033284169, 0.05053797168963101, 0.01886484223364175], [0.028718288574224572, -0.028739093185200754, -0.03767809537506346, 0.011145155963953204, -0.0193076494893542, 0.0731824623691306, -0.09724703616284691, 0.05007030302548944, 0.05687054292877823, -0.038029269165997005], [0.06606835828764014, -0.06912515605117024, -0.07876979639441248, 0.018994542379918506, 0.0623117721974384, 0.19443032239697944, -0.22006850219955915, 0.04952639175277342, 0.053484230396710665, -0.07627333202169147], [0.015498558517278814, -0.0653692286167469, -0.023511973210890925, -0.007756300036830746, 0.06570032135915926, 0.08314573650240231, -0.05242285750110594, -0.006628107311562768, 0.044380866200765666, -0.054625291149099545], [0.043265315513019556, -0.005550167676593823, 0.0024184946112127638, 0.018954533709399035, -0.014471815900009843, -0.028386430208623185, -0.05223006609280337, 0.03288249057679711, -0.012176917460428614, 0.012880094425829281], [0.08969394253922416, -0.030822573314797864, 0.041050031455886836, 0.05787053770405156, -0.037190046676845306, -0.04605131703308217, -0.1517274547924003, 0.07544243333724869, 0.01591885057632646, -0.014309756403897962], [0.028292878432794388, -0.06324061715632746, -0.02451691757688257, -0.03665678877134097, -0.09825062169408111, 0.11698615090991214, -0.014362791186697149, 0.06388068258463744, 0.007501456555628939, 0.020414924139382302], [0.007821502984139366, -0.016728216881846083, 0.014674610895217911, -0.004634177285026668, 0.05790725988760262, -0.040658530130724756, 0.008105179411742821, -0.009106201564279588, 0.029455203712055126, -0.045273028817352984], [0.01841025249497242, -0.054711275906082796, -0.040989881866760974, -0.013066637163187286, -0.03818763213180967, 0.1290284306572168, -0.059944655902836395, 0.019916394286574816, 0.01712338429817832, 0.01885938067448057], [0.004764366641793802, -0.049142576070540386, -0.0455108338129187, -0.0015923200312982235, 0.0035883130993717262, 0.11507791617128367, -0.04724163640265495, 0.019500451380283005, 0.019417671093465295, -0.023193160469737087], [0.02151842539141663, -0.114897810555015, -0.12436338954577772, -0.10924842392545271, 0.1244561921872266, 0.3044458448609136, -0.1052357702245578, -0.017936631818468506, 0.14907489134742055, -0.12582859847056485], [-0.036970260891511446, -0.034378863164940585, -0.05986692205497305, -0.05988940605812394, 0.07369594405157906, 0.19635618092414564, -0.044708183186081704, -0.03091304352641374, 0.0696893686621244, -0.07295770188184723], [0.027300850066044748, -0.02462104496559362, -0.028991881058756035, -0.022795017515018983, 0.01728608000643914, 0.07118096253243714, -0.02413429552755553, 0.002039705481149204, 0.012356616394104411, -0.02980297918651456], [0.045009917404296176, -0.07313539723758834, -0.044521319189339714, -0.02550415313850349, -0.012932233979553565, 0.1249370346013433, -0.05348868784288159, 0.008283061754473582, 0.023487292811230662, 0.008019270063697553], [0.005591419371455948, -0.03508208974513484, -0.037722062288794066, -0.04388932208628259, -0.028520294646475975, 0.1642881118034755, -0.014967091490359952, -0.0019396479686580677, -0.014400190589477219, 0.007592091226070449], [-0.020099356633180545, -0.0005695969774733785, -0.008411895045405259, -0.0047827638818833925, 0.029886028058574373, 0.025079527697235728, -0.010712772457976744, -0.013359573474962418, 0.020594067863465872, -0.016505207357203122], [-0.0020829379591074497, -0.040434526477462485, -0.062241014923822266, -0.05803147323630032, 0.010000666366556797, 0.1832456508938796, -0.03888613492996514, 0.0010056519054774322, 0.039660076505464686, -0.027197908637824276], [-0.010180241713449454, -0.03644208210354002, -0.049917438457896195, -0.04663920450217673, 0.03550325487699192, 0.14434411754032336, -0.03305987023496698, -0.004858889950767087, 0.04091091571956225, -0.03849245588456343], [-0.04432261773361488, -0.022821104535109812, -0.0919679568016138, -0.06233260937201356, 0.05052976721241308, 0.207765373884781, -0.04543532106370519, -0.03590269022016992, 0.10576807574640242, -0.062163327354537244], [-0.02861778983633143, 0.0013912058387395836, -0.02592486838345787, -0.006467619530604743, -0.004478281848011062, 0.06973166969252077, -0.013637618406690793, -0.011551050099123878, 0.016813175370306504, 0.004781617844476804], [-0.008762913273141146, -0.013084187082656308, -0.023200934717759546, -0.01999761427966306, 0.008817405143969973, 0.07434796088357964, -0.014626890830740381, -0.009854974440223483, 0.03134295687750308, -0.02548041878987878], [-0.027881848175068984, -0.03686291652127395, -0.06479912086598642, -0.06700710304797007, 0.04629456704037867, 0.22071250066546783, -0.04337563049680612, -0.013138627685362666, 0.07054072049764426, -0.08302560120662873], [-0.01852595342301461, -0.01488578585823353, -0.04243784550693311, -0.041879610276947324, 0.0173223870130359, 0.13044516956744687, -0.0219176919993265, -0.0016654471584453795, 0.03657688193663378, -0.04077719610948074], [-0.004688372099949831, -0.001945986916250202, -0.0004908801099003945, 0.0038175122751292327, -0.010513410698901758, 0.0074147640785497656, -0.0005327783832583728, -0.0006712480491182749, -0.003908472464372155, 0.005042799357755794], [-0.023811299887735914, -0.00841471187150133, -0.03908929372094274, -0.0272192272600018, 0.02642787288902325, 0.09193907278352934, -0.01824129534920786, -0.011175184905174627, 0.040905775972707385, -0.025132569288508506], [-0.021831384534481926, -0.008179668387947226, -0.03166886389352386, -0.01871275649455957, 0.0101313978908503, 0.08092643598718305, -0.01484235319956608, -0.009068842668089582, 0.028543611214665688, -0.017491185985117196], [-0.01313487601587193, 0.030611904577179, -0.04935393127942919, -0.014207717562959965, 0.02715231718434906, -0.04019232690108939, -0.004588541835036711, 0.04442730394454389, 0.018082730671773725, 0.0015353026856379818], [-0.009506495112180227, 0.008482144914480027, -0.00580448629133344, 0.016849277067788087, -0.015575604432774164, -0.026953940728567077, -0.009847407797864586, 0.043659257644335536, 0.01449612109753699, -0.02038841468338696], [-0.002551815930318476, 0.006378723977424257, -0.009739128551439116, -0.0002214814146987266, 0.0030540784010896025, -0.0037582909468545497, -0.00040705950097579875, 0.004366373259109259, 0.0016462116917418282, 0.002300273642601454], [-0.006695109945581109, 0.012543600118512967, -0.021945862166736777, -0.0008758825608326413, 0.015867792319337076, -0.008445519245954948, -0.005168356709373082, 0.001888124678044545, 0.006635149755857288, 0.009465127256450089], [0.003541233576481054, 0.00482025207242791, -0.0113042287562641, -0.00555379860245614, 0.008915643336674044, -0.023769848742966095, -0.003175841763304671, 0.013039529452074369, 0.014826119813851747, -0.0020522072666833363], [-0.0029173810407370384, -0.001908153639481528, 0.007049573986384701, 0.015335791766873776, -0.017141485806941564, -0.0032754906464253527, -0.003281525792326196, 0.020395642907042908, 0.003729555058891109, -0.01386907512810103], [-0.0016308624030769421, 0.009078479076672107, -0.015009246400939862, -0.00135074657528897, 0.009565176209072396, -0.027721381034139694, -0.0037705893710164484, 0.021406603081989793, 0.01889906631052602, -0.004652016058989415], [-0.0038612387309777878, 0.007375682582624625, -0.014167922456730464, 0.0012821551239912807, 0.0043813075808742, -0.018667606774079155, -0.001892436861730328, 0.019732374737393272, 0.009498127961051836, -0.004186687196685192], [-0.010335126008063198, 0.03037305351932319, 0.054426958116774005, 0.020644237588389094, -0.026712315007410167, -0.09783953731705168, -0.058775097709308666, 0.12009280767054317, 0.021588866453501082, -0.05445582976018626], [0.012775829563857694, 0.007425625033780393, 0.04933842764019401, 0.012041168879931077, -0.040038461678072894, -0.057090643191026615, -0.046762160987955194, 0.04201073105119154, 0.020420376481376176, 0.0007057620187919103], [-0.006091752783463202, 0.0007018636146143557, -0.0054775920745015385, 0.016725933608550847, -0.012867498199568611, -0.014047572305893208, -0.003792906645838616, 0.030843820887246746, 0.005247617435554806, -0.012280180041324928], [-0.01324290296455721, 0.0090165243805788, 3.0051895934199537e-06, 0.02665215059463419, -0.017451396591176237, -0.028387040556100536, -0.008801157953537139, 0.02565817784018793, 0.027112214985036, -0.020291968286955783], [0.00101845342325277, -0.0033646222092343255, 0.006688099902496636, 0.016601032386579822, -0.00821264750987239, -0.040880657035774946, -0.003548359238896571, 0.011751006145782972, 0.007633960574041508, 0.010080183070222033], [0.008310033529892747, -0.0023308228921067238, 0.03510199137060434, -0.0029447164112768607, -0.026556377424440402, -0.014718772256328679, -0.02127018377549024, 0.01133429236174887, 0.00848877896247144, 0.00034242631415956756], [0.0012210387356787766, 0.0014729277798129978, 0.011480020666428413, 0.020046319869442636, -0.016157156144587393, -0.05295343105561218, -0.017715929803418674, 0.03781380399202095, 0.012316410695994501, -0.0009794903003605365], [0.0017803367031379866, 0.0054502813722795695, 0.016453385002542467, 0.014282102100009282, -0.011402560766095447, -0.03916687529199472, -0.02020659700493447, 0.030715102266399754, 0.010133667563749423, -0.006462486551324006], [0.015342646740691444, 0.00017229094640086587, 0.04588486378436266, -0.014047352325797225, -0.06937862729683386, -0.07260008840028279, -0.03527862296022112, 0.05078934335944978, 0.08467506058750646, -0.005047994397720835], [-0.002571592864743648, -0.015476352252011777, -0.036390956503898064, -0.05262761291025084, 0.0027514074963620187, 0.05837211439231558, 0.014569946886226965, -0.05912574055723796, 0.0495510372463777, 0.03945874237765156], [-0.0009672647650233374, 0.0012871533655827798, -0.004889483800615313, 0.003079720403108021, -0.014213001901782972, -0.029234738179314452, -0.0077396385854711395, 0.025108951079385277, 0.028895265370948674, -0.003915794446624028], [0.011460298232096685, -0.0067001491460520635, 0.0356694522272185, 0.025916945737519972, -0.04120523556866572, -0.0739201750765579, -0.03634334463476599, 0.006640763629855455, 0.05486941279952001, 0.024432702952147306], [-0.00022712600539470277, -0.022339459670656914, 0.031169316196212344, 0.08012063368570038, -0.015976338543058775, -0.05178994211286492, -0.013222460146535381, 0.027443784330838196, -0.01368439972015293, -0.0207769435837204], [-0.007824918331963748, -0.009133977835193955, -0.018417048661022433, -0.02705404322081669, 0.013691346948585571, 0.05118737383778774, 0.013165402708750832, 